%YAML:1.0
---
opencv_ml_svm:
   format: 3
   svmType: C_SVC
   kernel:
      type: RBF
      gamma: 5.0624999999999998e-01
   C: 1.2500000000000000e+01
   term_criteria: { epsilon:1.1920928955078125e-07, iterations:1000 }
   var_count: 144
   class_count: 10
   class_labels: !!opencv-matrix
      rows: 10
      cols: 1
      dt: i
      data: [ 0, 1, 2, 3, 4, 5, 6, 7, 8, 9 ]
   sv_total: 112
   support_vectors:
      - [ 5.80003679e-01, 5.80003679e-01, 5.66921353e-01, 0., 0., 0., 0.,
          0., 0., 5.60342014e-01, 5.60342014e-01, 6.30129576e-02, 0.,
          1.34523109e-01, 5.60342014e-01, 1.48754388e-01, 2.07144003e-02,
          8.84922072e-02, 3.68513823e-01, 3.68513823e-01, 1.82879701e-01,
          3.60005766e-01, 3.68513823e-01, 3.68513823e-01, 1.68468699e-01,
          3.54788989e-01, 3.68513823e-01, 1.62144616e-01, 5.99980317e-02,
          2.35925585e-01, 3.92376631e-01, 2.07949966e-01, 3.04507315e-02,
          4.86982107e-01, 4.86982107e-01, 4.86982107e-01, 5.66052258e-01,
          5.66052258e-01, 2.39145279e-01, 3.45380530e-02, 1.55743569e-01,
          4.39706385e-01, 1.90779284e-01, 4.87989280e-03, 2.02769354e-01,
          4.00157779e-01, 4.00157779e-01, 1.68551028e-01, 8.18379298e-02,
          4.00157779e-01, 4.00157779e-01, 4.00157779e-01, 4.00157779e-01,
          1.17517309e-02, 7.05751702e-02, 3.04218411e-01, 3.88696253e-01,
          3.88696253e-01, 3.77529502e-01, 3.88696253e-01, 3.88696253e-01,
          3.88696253e-01, 2.51977108e-02, 0., 1.66366518e-01,
          4.74844038e-01, 4.74844038e-01, 1.41718471e-02, 6.78416248e-03,
          4.74844038e-01, 4.74844038e-01, 2.55783260e-01, 3.86772603e-01,
          4.14826959e-01, 4.14826959e-01, 2.23963000e-02, 4.03377205e-01,
          4.14826959e-01, 4.04699683e-01, 1.21305715e-02, 5.36188707e-02,
          4.09310684e-02, 3.39721382e-01, 4.13864613e-01, 4.13864613e-01,
          9.11431983e-02, 4.13864613e-01, 4.13864613e-01, 4.13864613e-01,
          1.18545204e-01, 2.80006498e-01, 4.04445946e-01, 4.04445946e-01,
          3.15710872e-01, 0., 0., 4.04445946e-01, 4.04445946e-01,
          4.04445946e-01, 3.26791763e-01, 4.38998282e-01, 4.38998282e-01,
          1.85382128e-01, 0., 2.87655354e-01, 4.38998282e-01,
          4.38998282e-01, 2.88439281e-02, 0., 2.05633998e-01,
          5.45315802e-01, 0., 5.45315802e-01, 5.45315802e-01,
          2.45277539e-01, 0., 0., 0., 2.89158285e-01, 4.67631876e-01,
          4.67631876e-01, 4.67631876e-01, 3.96365449e-02, 3.93138863e-02,
          4.55686182e-01, 2.11923242e-01, 3.57903868e-01, 2.47563332e-01,
          3.26076329e-01, 4.15321022e-01, 4.15321022e-01, 9.21158940e-02,
          4.11211364e-02, 4.15321022e-01, 4.15321022e-01, 4.07126158e-01,
          4.46292371e-01, 5.85516095e-02, 0., 4.46292371e-01,
          4.46292371e-01, 4.46292371e-01, 1.48939863e-01, 8.64377096e-02 ]
      - [ 4.25144643e-01, 4.25144643e-01, 4.25144643e-01, 3.00158978e-01,
          4.25144643e-01, 4.37931530e-02, 0., 0., 4.25144643e-01,
          4.80579942e-01, 1.88862860e-01, 5.46387322e-02, 3.54135692e-01,
          4.80579942e-01, 9.94306952e-02, 7.72429407e-02, 3.49870056e-01,
          4.80579942e-01, 4.03535604e-01, 1.57688428e-02, 5.88159785e-02,
          2.54500628e-01, 1.58572763e-01, 0., 4.96178538e-01,
          4.96178538e-01, 4.96178538e-01, 0., 0., 0., 0., 0., 0.,
          7.04615593e-01, 7.04615593e-01, 0., 8.00622031e-02,
          1.96477696e-01, 3.69770557e-01, 4.81976092e-01, 7.37292707e-01,
          1.70812100e-01, 0., 0., 7.62822106e-02, 1.93817466e-01,
          4.30412620e-01, 4.30412620e-01, 4.30412620e-01, 4.30412620e-01,
          4.30412620e-01, 1.16418160e-01, 1.23341471e-01, 5.56232929e-02,
          1.56333283e-01, 4.06218022e-01, 4.19958919e-01, 2.56320328e-01,
          8.94561633e-02, 4.19958919e-01, 4.19958919e-01, 4.19958919e-01,
          1.64884686e-01, 0., 0., 0., 0., 0., 0., 6.85184896e-01,
          6.85184896e-01, 2.32816100e-01, 4.98753130e-01, 4.98753130e-01,
          4.98753130e-01, 0., 0., 0., 0., 0., 4.98753130e-01,
          5.25106847e-01, 5.25106847e-01, 5.25106847e-01, 0.,
          1.69454500e-01, 1.96175963e-01, 4.90508564e-02, 1.66627929e-01,
          2.64902979e-01, 3.31657171e-01, 4.09753531e-01, 3.81413341e-01,
          1.01600267e-01, 4.09753531e-01, 2.34800979e-01, 5.82065359e-02,
          4.09753531e-01, 4.09753531e-01, 4.68671054e-01, 2.56900817e-01,
          2.86033098e-02, 1.43337538e-02, 1.45767510e-01, 1.68638304e-01,
          4.68671054e-01, 4.68671054e-01, 4.68671054e-01, 3.93768281e-01,
          4.65181440e-01, 4.65181440e-01, 4.65181440e-01, 4.17020708e-01,
          0., 0., 0., 1.31197095e-01, 3.83473039e-01, 3.83473039e-01,
          3.83473039e-01, 3.83473039e-01, 3.83473039e-01, 3.83473039e-01,
          2.21437037e-01, 0., 2.54607379e-01, 1.28088340e-01,
          2.89834231e-01, 4.46740359e-01, 4.46740359e-01, 4.46740359e-01,
          4.46740359e-01, 2.17262983e-01, 1.06807671e-01, 1.95469186e-01,
          2.20856458e-01, 1.01816535e-01, 1.53966174e-01, 2.10640490e-01,
          4.68531042e-01, 4.68531042e-01, 4.68531042e-01, 3.91682446e-01,
          2.36900955e-01 ]
      - [ 4.39788491e-01, 4.39788491e-01, 3.52654368e-01, 0.,
          4.39788491e-01, 3.09150457e-01, 4.48572151e-02, 0.,
          4.39788491e-01, 4.89281893e-01, 1.15518987e-01, 2.14925800e-02,
          4.00081247e-01, 4.89281893e-01, 1.45099580e-01, 3.17433216e-02,
          2.84587115e-01, 4.89281893e-01, 4.23121303e-01, 1.42931908e-01,
          4.23121303e-01, 2.05318987e-01, 1.95012167e-01, 0.,
          4.23121303e-01, 4.23121303e-01, 4.23121303e-01, 4.07416642e-01,
          4.07416642e-01, 4.07416642e-01, 0., 0., 0., 4.07416642e-01,
          4.07416642e-01, 4.07416642e-01, 2.61850089e-01, 3.77186209e-01,
          3.77186209e-01, 9.35593173e-02, 3.77186209e-01, 3.77186209e-01,
          3.77186209e-01, 3.77186209e-01, 2.55531192e-01, 2.68209010e-01,
          1.38028979e-01, 4.64886218e-01, 4.85708296e-01, 4.85708296e-01,
          2.66653448e-01, 1.61348671e-01, 1.58888772e-01, 3.06322634e-01,
          5.68052232e-02, 2.62429327e-01, 4.35834020e-01, 4.35834020e-01,
          1.89778090e-01, 0., 4.35834020e-01, 4.35834020e-01,
          3.57392490e-01, 0., 4.98538464e-01, 4.98538464e-01, 0., 0., 0.,
          4.98538464e-01, 4.98538464e-01, 2.93004159e-02, 0.,
          4.22920823e-01, 4.98227984e-01, 1.57748520e-01, 0., 0.,
          4.98227984e-01, 4.98227984e-01, 2.15833232e-01, 0.,
          4.58251983e-01, 4.96257156e-01, 1.92859143e-01, 0., 0.,
          4.96257156e-01, 4.96257156e-01, 9.50815156e-02, 1.25118688e-01,
          4.24738258e-01, 4.24738258e-01, 4.24738258e-01, 5.19406749e-03,
          1.40274353e-02, 4.24738258e-01, 4.24738258e-01, 2.79044092e-01,
          3.86094928e-01, 4.28635746e-01, 4.28635746e-01, 5.88487685e-02,
          9.07664672e-02, 2.76605517e-01, 4.28635746e-01, 4.28635746e-01,
          1.53369799e-01, 0., 3.13028008e-01, 3.96472305e-01,
          3.34815323e-01, 3.96472305e-01, 3.96472305e-01, 3.96472305e-01,
          3.96472305e-01, 0., 0., 1.62676334e-01, 4.88029033e-01, 0.,
          3.03129703e-01, 3.55763525e-01, 5.05893409e-01, 5.05893409e-01,
          0., 2.38767967e-01, 1.81833774e-01, 4.75394219e-01,
          4.75394219e-01, 4.75394219e-01, 2.41205379e-01, 1.27185553e-01,
          3.00843418e-01, 2.49631941e-01, 4.10581142e-01, 2.68378079e-01,
          7.86648244e-02, 3.85789990e-01, 4.14209038e-01, 4.14209038e-01,
          4.14209038e-01, 2.09480450e-01, 2.04076454e-01 ]
      - [ 4.99230951e-01, 4.99230951e-01, 2.05568209e-01, 0., 0., 0.,
          3.78297001e-01, 2.48902380e-01, 4.99230951e-01, 5.55527627e-01,
          7.46414661e-02, 2.23924369e-01, 0., 0., 0., 2.97260761e-01,
          4.82859462e-01, 5.55527627e-01, 2.74767071e-01, 6.70095503e-01,
          6.70095503e-01, 0., 0., 0., 1.11175463e-01, 4.51345481e-02,
          7.32152760e-02, 3.56000334e-01, 3.93541247e-01, 3.91540289e-01,
          0., 0., 3.93541247e-01, 3.93541247e-01, 3.10692251e-01,
          3.93541247e-01, 3.98469776e-01, 3.98469776e-01, 3.98469776e-01,
          0., 3.32011841e-02, 3.98469776e-01, 3.98469776e-01,
          2.05542728e-01, 3.98469776e-01, 4.41380411e-01, 4.41380411e-01,
          8.34604204e-02, 0., 5.89980707e-02, 1.05173178e-01,
          4.41380411e-01, 4.41380411e-01, 4.41380411e-01, 0.,
          5.45935094e-01, 5.45935094e-01, 0., 0., 1.61165714e-01,
          5.45935094e-01, 2.71373481e-01, 2.81921439e-02, 0.,
          4.46215838e-01, 4.46215838e-01, 0., 0., 4.46215838e-01,
          4.46215838e-01, 4.46215838e-01, 0., 3.74842763e-01,
          3.74842763e-01, 3.74842763e-01, 3.74842763e-01, 3.74842763e-01,
          3.74842763e-01, 2.98982710e-01, 2.51425300e-02, 2.51375526e-01,
          1.70438558e-01, 2.18775675e-01, 3.88121158e-01, 3.88121158e-01,
          3.88121158e-01, 2.82679975e-01, 3.88121158e-01, 3.88121158e-01,
          2.93448806e-01, 4.00473028e-01, 4.00473028e-01, 4.00473028e-01,
          8.50223005e-03, 2.01395229e-02, 4.00473028e-01, 4.00473028e-01,
          3.89964104e-01, 2.03853086e-01, 9.81495902e-02, 4.96394634e-01,
          2.01315403e-01, 0., 0., 4.96394634e-01, 4.96394634e-01,
          4.53485578e-01, 2.99833622e-03, 0., 2.33789489e-01,
          4.72007364e-01, 4.72007364e-01, 4.72007364e-01, 4.72007364e-01,
          2.22325727e-01, 5.94081357e-03, 0., 1.85551360e-01,
          2.41854757e-01, 4.44363683e-01, 4.44363683e-01, 4.44363683e-01,
          5.28354011e-02, 3.71521339e-02, 4.17281687e-01, 3.63269836e-01,
          3.73714030e-01, 3.73714030e-01, 7.75965378e-02, 3.73714030e-01,
          3.73714030e-01, 3.73714030e-01, 3.56624871e-01, 1.58401191e-01,
          3.73714030e-01, 8.78095105e-02, 2.80679733e-01, 1.66892037e-02,
          0., 1.28612027e-01, 6.41487300e-01, 6.41487300e-01,
          2.55858749e-01, 4.25263904e-02 ]
      - [ 4.17564780e-01, 4.17564780e-01, 4.17564780e-01, 0., 0.,
          4.17564780e-01, 4.17564780e-01, 2.78603405e-01, 2.15423316e-01,
          3.50516945e-01, 1.22947194e-01, 0., 0., 0., 5.18496931e-01,
          5.18496931e-01, 5.18496931e-01, 2.24335849e-01, 4.89322156e-01,
          4.89322156e-01, 4.89322156e-01, 5.88493608e-02, 1.58793777e-01,
          0., 8.84330124e-02, 2.94776708e-02, 4.89322156e-01,
          4.18723673e-01, 4.18723673e-01, 4.28669862e-02, 5.06567508e-02,
          3.38770956e-01, 0., 4.18723673e-01, 4.18723673e-01,
          4.18723673e-01, 1.39699858e-02, 4.46172208e-01, 4.46172208e-01,
          0., 0., 4.46172208e-01, 4.46172208e-01, 4.46172208e-01, 0.,
          4.45050925e-01, 4.45050925e-01, 1.51943207e-01, 0., 0.,
          4.45050925e-01, 4.45050925e-01, 4.24483657e-01, 0.,
          4.53462183e-01, 4.53462183e-01, 4.53462183e-01, 3.49235050e-02,
          1.05369873e-01, 4.53462183e-01, 3.97850543e-01, 4.33557108e-02,
          2.17174180e-02, 1.75366938e-01, 3.86460811e-01, 3.96206588e-01,
          9.78972167e-02, 3.96206588e-01, 3.96206588e-01, 3.96206588e-01,
          3.96206588e-01, 1.46472424e-01, 9.65759382e-02, 2.39753619e-01,
          4.25405502e-01, 4.25405502e-01, 1.55217499e-01, 0.,
          4.25405502e-01, 4.25405502e-01, 4.25405502e-01, 4.42476094e-01,
          4.42476094e-01, 3.50749344e-01, 1.46978684e-02, 4.74258326e-02,
          3.47343177e-01, 4.07248765e-01, 2.12452427e-01, 3.83255631e-01,
          4.68214989e-01, 4.68214989e-01, 3.42559576e-01, 0.,
          6.63411291e-03, 4.68214989e-01, 4.68214989e-01, 3.21084857e-02,
          3.55741591e-04, 3.56393635e-01, 4.31386441e-01, 4.31386441e-01,
          0., 3.58687304e-02, 4.31386441e-01, 4.31386441e-01,
          3.50729048e-01, 0., 2.03284636e-01, 3.26697044e-02,
          4.43697691e-01, 4.43697691e-01, 4.43697691e-01, 2.06637718e-02,
          1.08606413e-01, 3.91769350e-01, 4.43697691e-01, 4.48381394e-01,
          4.48381394e-01, 2.49088835e-02, 1.02522187e-01, 4.48381394e-01,
          4.48381394e-01, 2.25836903e-01, 8.74991864e-02, 3.48637491e-01,
          1.53941154e-01, 4.28978354e-01, 4.28978354e-01, 1.82351738e-01,
          4.28978354e-01, 4.28978354e-01, 4.28978354e-01, 1.36506408e-01,
          4.32023592e-03, 7.47937337e-02, 3.87772202e-01, 3.88571054e-01,
          3.88571054e-01, 3.88571054e-01, 3.88571054e-01, 3.88571054e-01,
          2.91923493e-01, 0. ]
      - [ 4.31581885e-01, 4.31581885e-01, 4.31581885e-01, 5.36152199e-02,
          4.31581885e-01, 2.31899425e-01, 3.35219987e-02, 8.12311694e-02,
          4.31581885e-01, 4.40816462e-01, 1.23530455e-01, 7.34544545e-02,
          4.40816462e-01, 4.40816462e-01, 5.71701191e-02, 8.77893716e-03,
          4.40816462e-01, 4.40816462e-01, 1.93238333e-01, 1.94368750e-01,
          4.98896450e-01, 1.60558984e-01, 1.04828827e-01, 0.,
          3.69372219e-01, 4.98896450e-01, 4.98896450e-01, 4.08048004e-01,
          4.08048004e-01, 4.08048004e-01, 0., 0., 0., 4.08048004e-01,
          4.04237121e-01, 4.08048004e-01, 3.88920426e-01, 3.88920426e-01,
          3.88920426e-01, 1.66827545e-01, 3.12826574e-01, 2.15589046e-01,
          3.88920426e-01, 3.88920426e-01, 2.60093391e-01, 1.45711586e-01,
          3.81219327e-01, 3.81219327e-01, 3.81219327e-01, 3.81219327e-01,
          1.23419531e-01, 3.81219327e-01, 3.81219327e-01, 2.96240062e-01,
          4.16080914e-02, 3.58179063e-01, 4.91227627e-01, 1.62318885e-01,
          6.34204075e-02, 2.41925836e-01, 4.91227627e-01, 4.91227627e-01,
          2.28601769e-01, 0., 4.98753130e-01, 4.98753130e-01, 0., 0., 0.,
          4.98753130e-01, 4.98753130e-01, 0., 6.36581779e-02,
          3.82667810e-01, 4.09958899e-01, 4.09958899e-01, 4.09958899e-01,
          0., 4.09958899e-01, 4.09958899e-01, 7.13182464e-02,
          4.03061926e-01, 4.03061926e-01, 4.03061926e-01, 3.33599076e-02,
          1.87262781e-02, 4.03061926e-01, 4.03061926e-01, 4.03061926e-01,
          1.40557244e-01, 4.05988932e-01, 4.05988932e-01, 3.56176615e-01,
          0., 6.89221453e-03, 4.05988932e-01, 4.05988932e-01,
          2.84445226e-01, 3.58912081e-01, 4.14473861e-01, 4.14473861e-01,
          4.14473861e-01, 0., 1.42877782e-02, 3.68837208e-01,
          4.14473861e-01, 4.14473861e-01, 2.59119775e-02, 1.80626839e-01,
          4.65541244e-01, 4.79018033e-01, 4.79018033e-01, 4.79018033e-01,
          0., 6.34590983e-02, 1.21747471e-01, 1.96562007e-01,
          4.82467860e-01, 3.26127142e-01, 2.85887718e-01, 1.27939433e-01,
          5.29041708e-01, 1.70663401e-01, 2.36684009e-01, 2.10752755e-01,
          3.84753346e-01, 4.77327585e-01, 2.53764421e-01, 1.22744571e-02,
          4.60775644e-02, 4.77327585e-01, 4.77327585e-01, 9.42728817e-02,
          9.11499634e-02, 4.77327585e-01, 3.10730457e-01, 3.72075468e-01,
          0., 0., 4.94521379e-01, 4.94521379e-01, 4.94521379e-01,
          1.38412789e-01, 8.51772949e-02 ]
      - [ 5.75688422e-01, 5.75688422e-01, 0., 0., 0., 0., 0., 0.,
          5.75688422e-01, 5.48689425e-01, 4.40989822e-01, 4.44891453e-01,
          0., 0., 0., 0., 0., 5.48689425e-01, 3.94508988e-01,
          3.94508988e-01, 3.94508988e-01, 1.61635771e-01, 1.91905692e-01,
          3.94508988e-01, 3.94508988e-01, 9.16458890e-02, 3.82778466e-01,
          3.88487160e-01, 2.84677476e-01, 2.05184445e-01, 3.88487160e-01,
          2.82384634e-01, 1.96531355e-01, 3.88487160e-01, 3.88487160e-01,
          3.88487160e-01, 4.38581437e-01, 4.38581437e-01, 4.38581437e-01,
          0., 7.64611810e-02, 4.38581437e-01, 4.38581437e-01,
          1.38731617e-02, 1.66768894e-01, 3.88021022e-01, 3.88021022e-01,
          3.88021022e-01, 0., 3.88021022e-01, 3.88021022e-01,
          3.03716213e-01, 2.27604248e-02, 3.88021022e-01, 3.67344886e-01,
          3.67344886e-01, 3.19247961e-01, 2.41465699e-02, 3.67344886e-01,
          3.67344886e-01, 3.67344886e-01, 2.90127665e-01, 3.67344886e-01,
          3.51987034e-01, 3.89863044e-01, 2.17381045e-01, 1.73970550e-01,
          3.89863044e-01, 3.89863044e-01, 3.89863044e-01, 3.89863044e-01,
          1.86344236e-01, 4.13358361e-01, 4.13358361e-01, 4.13358361e-01,
          8.67350996e-02, 7.42517645e-03, 4.13358361e-01, 4.13358361e-01,
          2.96198219e-01, 2.15020061e-01, 4.32157189e-01, 4.32157189e-01,
          4.32157189e-01, 0., 5.66034205e-02, 4.32157189e-01,
          4.32157189e-01, 2.40397513e-01, 2.98159439e-02, 8.36435705e-02,
          1.92216039e-01, 1.56761661e-01, 0., 5.10313392e-01,
          5.10313392e-01, 5.10313392e-01, 3.80954921e-01, 0., 0., 0., 0.,
          0., 7.46469498e-01, 5.59417427e-01, 3.38993579e-01,
          8.64171013e-02, 0., 3.83679867e-01, 2.28036627e-01,
          3.83679867e-01, 3.83679867e-01, 3.83679867e-01, 3.83679867e-01,
          1.27082601e-01, 2.11552873e-01, 3.83679867e-01, 3.58446419e-01,
          3.46311808e-01, 2.18487471e-01, 5.08097894e-02, 3.82315308e-01,
          5.10460556e-01, 5.10460556e-01, 1.06972203e-01, 1.31984100e-01,
          0., 1.65240001e-02, 4.95719984e-02, 0., 0., 6.13520324e-01,
          6.13520324e-01, 4.88189906e-01, 0., 0., 0., 0., 0., 0., 0., 0.,
          0., 0. ]
      - [ 4.62440699e-01, 4.62440699e-01, 4.62440699e-01, 0.,
          1.92346677e-01, 4.62440699e-01, 2.52164572e-01, 3.62659805e-03,
          1.98438719e-01, 4.80702013e-01, 2.56506205e-01, 7.40670180e-03,
          0., 4.80702013e-01, 4.76187021e-01, 9.67987180e-02,
          1.09644607e-03, 4.80702013e-01, 5.53593695e-01, 1.67067572e-02,
          1.36375904e-01, 2.17843726e-01, 5.53593695e-01, 0.,
          4.19520475e-02, 8.35486352e-02, 5.53593695e-01, 3.01893502e-01,
          4.61155251e-02, 3.36739093e-01, 3.93234789e-01, 3.98348898e-01,
          0., 3.98348898e-01, 3.98348898e-01, 3.98348898e-01,
          2.86398053e-01, 4.48421150e-01, 4.48421150e-01, 0.,
          1.61437970e-02, 4.48421150e-01, 4.48421150e-01, 3.30015332e-01,
          0., 3.63165736e-02, 7.50702769e-02, 4.36592586e-02, 0.,
          5.51347911e-01, 5.51347911e-01, 5.51347911e-01, 2.71440417e-01,
          0., 1.98233321e-01, 4.88746554e-01, 4.88746554e-01,
          4.88746554e-01, 4.88746554e-01, 0., 1.49689782e-02,
          1.02582825e-02, 0., 2.60244936e-01, 4.29173559e-01,
          4.29173559e-01, 4.29173559e-01, 6.05542921e-02, 0.,
          4.29173559e-01, 4.29173559e-01, 5.80417886e-02, 1.66180748e-02,
          3.98407519e-01, 4.22213048e-01, 4.22213048e-01, 1.20429002e-01,
          0., 4.22213048e-01, 4.22213048e-01, 3.30483228e-01,
          4.94050980e-01, 0., 1.07386494e-02, 1.09557882e-01,
          8.12522024e-02, 0., 4.94050980e-01, 4.94050980e-01,
          4.94050980e-01, 4.90370840e-01, 4.90370840e-01, 4.90370840e-01,
          5.36280498e-03, 0., 5.92838824e-02, 1.72125369e-01,
          8.80659278e-03, 4.90370840e-01, 3.29343230e-01, 4.36525077e-01,
          4.36525077e-01, 1.00834491e-02, 0., 4.36525077e-01,
          4.36525077e-01, 3.52892369e-01, 1.79244187e-02, 3.76333296e-02,
          5.83875962e-02, 4.71544892e-01, 5.27028739e-01, 5.27028739e-01,
          0., 6.25937432e-02, 3.27410460e-01, 3.17683071e-01,
          4.83896405e-01, 0., 2.91930269e-02, 4.83896405e-01,
          4.83896405e-01, 2.50200499e-02, 3.17835039e-03, 2.38863379e-01,
          4.83896405e-01, 5.34677565e-01, 2.12717190e-01, 1.03649817e-01,
          7.33279809e-02, 5.34677565e-01, 1.99338153e-01, 1.88784763e-01,
          1.66130085e-02, 5.34677565e-01, 2.02479854e-01, 2.34273717e-01,
          1.66218996e-01, 8.28583352e-03, 5.18768728e-01, 5.18768728e-01,
          5.18768728e-01, 2.28045404e-01, 1.08956859e-01 ]
      - [ 5.72170258e-01, 5.72170258e-01, 5.72170258e-01, 0., 0.,
          9.17138755e-02, 5.99063188e-02, 1.22461393e-02, 0.,
          3.96807700e-01, 3.96807700e-01, 3.84511411e-01, 0., 0.,
          3.96807700e-01, 3.96807700e-01, 3.52308035e-01, 3.06985945e-01,
          2.55099356e-01, 0., 0., 0., 0., 5.36807775e-01, 5.36807775e-01,
          5.36807775e-01, 2.55099356e-01, 0., 0., 0., 0., 0., 0., 0., 0.,
          0., 2.23309472e-01, 5.49842834e-01, 5.49842834e-01, 0., 0.,
          4.39594835e-01, 3.77027452e-01, 6.77823275e-02, 0.,
          1.60657495e-01, 4.80196923e-01, 4.11314368e-01, 0., 0.,
          4.80196923e-01, 4.80196923e-01, 3.29311848e-01, 0., 0., 0., 0.,
          0., 0., 5.75688422e-01, 5.75688422e-01, 5.75688422e-01, 0., 0.,
          0., 0., 0., 0., 0., 0., 0., 0., 4.46139008e-01, 4.95099694e-01,
          4.95099694e-01, 0., 2.25784983e-02, 9.69968736e-03,
          4.95099694e-01, 2.42908582e-01, 3.21780704e-02, 4.43222433e-01,
          4.43222433e-01, 1.03285193e-01, 0., 9.96950828e-03,
          5.07424809e-02, 4.43222433e-01, 4.43222433e-01, 4.43222433e-01,
          6.78854644e-01, 1.54593855e-01, 0., 0., 2.18256533e-01, 0.,
          7.48758204e-04, 2.49586097e-04, 6.78854644e-01, 5.21995425e-01,
          1.30067244e-02, 0., 0., 2.65080780e-01, 1.55206531e-01,
          5.21995425e-01, 2.87790060e-01, 5.21995425e-01, 4.46243703e-01,
          4.60749388e-01, 3.58293474e-01, 4.60749388e-01, 4.60749388e-01,
          6.27793595e-02, 1.30962700e-01, 8.10383335e-02, 5.79703338e-02,
          5.49340904e-01, 4.52451371e-02, 4.18296969e-03, 7.63649717e-02,
          5.49340904e-01, 3.90883237e-02, 1.89452663e-01, 2.09454969e-01,
          5.49340904e-01, 4.97697890e-01, 4.89906594e-02, 0., 0.,
          4.97697890e-01, 4.97697890e-01, 4.26194668e-02, 0.,
          4.97697890e-01, 4.11136895e-01, 5.80219645e-03, 0., 0.,
          4.43333119e-01, 4.43333119e-01, 4.43333119e-01, 2.00816959e-01,
          4.43333119e-01 ]
      - [ 5.32741547e-01, 5.32741547e-01, 2.25757763e-01, 4.31432165e-02,
          2.16283411e-01, 1.11799486e-01, 8.02733004e-02, 1.57129362e-01,
          5.32741547e-01, 4.39879000e-01, 4.39879000e-01, 1.99327618e-01,
          9.49026495e-02, 1.65114403e-01, 5.26125655e-02, 3.77972305e-01,
          4.39879000e-01, 4.39879000e-01, 4.08770055e-01, 4.08770055e-01,
          1.27946660e-01, 1.83990330e-01, 4.08770055e-01, 3.76765668e-01,
          1.78330228e-01, 3.21819663e-01, 4.08770055e-01, 1.45309731e-01,
          6.46222830e-02, 1.41525373e-01, 2.34803766e-01, 1.94541350e-01,
          3.06365397e-02, 5.33987880e-01, 5.33987880e-01, 5.33987880e-01,
          1.80358186e-01, 4.31222349e-01, 4.31222349e-01, 2.07888246e-01,
          2.11530745e-01, 4.31222349e-01, 4.31222349e-01, 3.62219334e-01,
          1.36680948e-02, 2.41448984e-01, 3.63671541e-01, 3.63671541e-01,
          3.63671541e-01, 2.19888911e-01, 3.26249063e-01, 3.63671541e-01,
          3.63671541e-01, 3.49276811e-01, 1.16839461e-01, 3.44081134e-01,
          4.37734812e-01, 3.53020400e-01, 2.56766438e-01, 4.37734812e-01,
          4.37734812e-01, 3.01263511e-01, 8.62364173e-02, 1.55827589e-03,
          3.96818846e-01, 4.93715525e-01, 3.10329854e-01, 6.52004853e-02,
          3.71789783e-02, 4.93715525e-01, 4.93715525e-01, 6.63190931e-02,
          2.01898634e-01, 4.04971093e-01, 4.04971093e-01, 4.04971093e-01,
          2.00733859e-02, 3.17531340e-02, 4.04971093e-01, 4.04971093e-01,
          3.65749002e-01, 3.60922873e-01, 3.60922873e-01, 3.60922873e-01,
          1.01758048e-01, 3.60922873e-01, 3.60922873e-01, 3.60922873e-01,
          3.60922873e-01, 2.72363871e-01, 4.02480453e-01, 4.02480453e-01,
          4.02480453e-01, 5.57605103e-02, 1.26700863e-01, 6.98115379e-02,
          4.02480453e-01, 4.02480453e-01, 4.02480453e-01, 1.92165568e-01,
          4.64262158e-01, 4.64262158e-01, 0., 0., 3.01045477e-01,
          4.64262158e-01, 4.64262158e-01, 7.51619935e-02, 6.73473105e-02,
          1.40664548e-01, 4.94988024e-01, 4.94988024e-01, 4.94988024e-01,
          4.57778990e-01, 4.62931432e-02, 4.11016271e-02, 1.49334356e-01,
          7.82392770e-02, 1.40173987e-01, 4.78270143e-01, 4.78270143e-01,
          4.78270143e-01, 4.78270143e-01, 2.09599137e-01, 4.16997112e-02,
          9.38766599e-02, 3.27981859e-01, 8.81659389e-02, 4.17430967e-01,
          4.61389214e-01, 4.61389214e-01, 2.94691980e-01, 9.42611694e-02,
          1.97678566e-01, 3.81093234e-01, 1.94694579e-01, 1.17939889e-01,
          1.16480239e-01, 0., 5.33154845e-01, 5.33154845e-01,
          5.33154845e-01, 2.48860821e-01, 1.20822787e-01 ]
      - [ 3.39694142e-01, 4.22011942e-01, 4.22011942e-01, 0., 0., 0.,
          4.22011942e-01, 4.22011942e-01, 4.09897596e-01, 5.08429348e-01,
          1.77550018e-01, 0., 0., 0., 0., 5.55242717e-01, 5.55242717e-01,
          2.96381384e-01, 6.45905077e-01, 3.98954540e-01, 0., 0., 0., 0.,
          0., 0., 6.45905077e-01, 5.65240741e-01, 5.27077774e-03, 0., 0.,
          0., 0., 3.33483547e-01, 4.94087458e-01, 5.65240741e-01,
          3.40443440e-02, 4.98462170e-01, 4.98462170e-01, 0., 0., 0.,
          4.98462170e-01, 4.98462170e-01, 2.15787720e-03, 5.46761513e-01,
          5.46761513e-01, 9.37715545e-03, 0., 4.67025004e-02,
          2.23797277e-01, 5.46761513e-01, 2.04420224e-01, 5.96109629e-02,
          4.45725113e-01, 4.45725113e-01, 0., 0., 4.45725113e-01,
          4.45725113e-01, 4.68340926e-02, 0., 4.45725113e-01,
          4.07409400e-01, 5.95723465e-03, 0., 0., 4.07409400e-01,
          4.07409400e-01, 4.07409400e-01, 4.07409400e-01, 4.07409400e-01,
          3.47254127e-01, 4.62515920e-01, 4.62515920e-01, 7.00319069e-04,
          0., 8.68854523e-02, 4.62515920e-01, 3.99922043e-01,
          2.56016701e-01, 4.91249710e-01, 4.91249710e-01, 6.87163547e-02,
          0., 6.56227097e-02, 4.91249710e-01, 4.91249710e-01,
          1.13223821e-01, 8.91099423e-02, 9.47878733e-02, 1.26373380e-01,
          0., 0., 6.54154003e-01, 6.54154003e-01, 3.35271388e-01,
          8.68730340e-03, 1.40328044e-02, 0., 0., 0., 0., 6.23753846e-01,
          6.23753846e-01, 4.56847131e-01, 8.32176283e-02, 0.,
          1.06403083e-01, 2.89950013e-01, 4.58901733e-01, 4.58901733e-01,
          4.58901733e-01, 4.58901733e-01, 2.12918475e-01, 2.82453112e-02,
          1.07369334e-01, 6.63048998e-02, 6.10955916e-02, 2.57092919e-02,
          1.71307903e-02, 2.96274543e-01, 6.67873442e-01, 6.67873442e-01,
          3.86709422e-02, 5.35275005e-02, 0., 0., 0., 0., 7.07951486e-02,
          7.02697933e-01, 7.02697933e-01, 2.01136395e-02, 0., 0., 0., 0.,
          0., 0., 0., 0., 0., 0. ]
      - [ 4.93139088e-01, 4.93139088e-01, 4.93139088e-01, 1.64694954e-02,
          1.46346942e-01, 2.05747839e-02, 1.40108829e-02, 4.67029400e-03,
          4.93139088e-01, 4.94140834e-01, 8.87465253e-02, 3.01210093e-03,
          3.57738659e-02, 9.56833661e-02, 6.63204072e-03, 4.94140834e-01,
          4.94140834e-01, 4.94140834e-01, 2.15484738e-01, 4.52532262e-01,
          4.52532262e-01, 0., 0., 0., 4.52532262e-01, 4.52532262e-01,
          3.60422522e-01, 4.09760207e-01, 4.09760207e-01, 4.09760207e-01,
          0., 0., 0., 4.09760207e-01, 4.09760207e-01, 3.95460993e-01,
          7.31402934e-02, 4.40150470e-01, 4.40150470e-01, 2.94835150e-01,
          3.31570506e-01, 3.23847771e-01, 4.40150470e-01, 3.27009499e-01,
          1.94211416e-02, 2.52488926e-02, 1.62203342e-01, 4.70736474e-01,
          4.70736474e-01, 2.54438639e-01, 1.22520067e-01, 4.70736474e-01,
          4.70736474e-01, 4.72145900e-02, 3.92276719e-02, 4.98345226e-01,
          4.98345226e-01, 0., 0., 0., 4.98345226e-01, 4.98345226e-01,
          9.59413592e-03, 2.59521101e-02, 4.98398036e-01, 4.98398036e-01,
          0., 0., 2.73224879e-02, 4.98398036e-01, 4.98398036e-01, 0., 0.,
          4.97707099e-01, 4.97707099e-01, 6.18123636e-02, 0.,
          1.89476572e-02, 4.97707099e-01, 4.97707099e-01, 0.,
          1.46794822e-02, 4.37994719e-01, 4.39231366e-01, 4.39231366e-01,
          0., 6.10307604e-03, 4.39231366e-01, 4.39231366e-01,
          1.78391993e-01, 4.06173199e-01, 4.06173199e-01, 3.99642676e-01,
          5.47050722e-02, 0., 9.13910493e-02, 4.06173199e-01,
          4.06173199e-01, 4.06173199e-01, 2.19560355e-01, 4.58790392e-01,
          4.58790392e-01, 0., 0., 4.58790392e-01, 4.58790392e-01,
          3.24253023e-01, 1.07734771e-02, 0., 2.35846430e-01,
          3.95900130e-01, 3.95900130e-01, 3.95900130e-01, 3.95900130e-01,
          3.95900130e-01, 3.95900130e-01, 0., 3.29463966e-02,
          1.94365114e-01, 4.90697712e-01, 4.90697712e-01, 4.90697712e-01,
          5.90522811e-02, 4.04519349e-01, 2.39853323e-01, 9.60751474e-02,
          3.53300154e-01, 1.92989334e-01, 1.56944230e-01, 3.99684608e-01,
          4.77205664e-01, 4.77205664e-01, 2.55281746e-01, 1.63275704e-01,
          3.18606704e-01, 7.92831182e-02, 1.17738850e-01, 1.57218408e-02,
          0., 5.25764108e-01, 5.71586311e-01, 5.71586311e-01,
          2.07794443e-01, 2.94724666e-02 ]
      - [ 5.77838540e-01, 5.77838540e-01, 3.69345069e-01, 0.,
          2.41892517e-01, 2.81100959e-01, 1.46390125e-01, 2.53254566e-02,
          1.74408570e-01, 4.06643480e-01, 3.56190443e-01, 7.69793540e-02,
          4.06643480e-01, 4.06643480e-01, 1.65672213e-01, 9.43305790e-02,
          4.06643480e-01, 4.06643480e-01, 1.22389771e-01, 1.12519413e-01,
          1.05243057e-01, 1.67327791e-01, 6.16912208e-02, 0.,
          5.54958761e-01, 5.54958761e-01, 5.54958761e-01, 4.44802582e-01,
          4.44802582e-01, 7.94379637e-02, 0., 0., 0., 4.44802582e-01,
          4.44802582e-01, 4.44802582e-01, 2.00582147e-01, 4.54727650e-01,
          4.54727650e-01, 0., 7.58686438e-02, 4.54727650e-01,
          4.54727650e-01, 3.49791020e-01, 2.43329071e-03, 2.19300743e-02,
          3.64940166e-01, 3.93322259e-01, 3.93322259e-01, 3.93322259e-01,
          3.93322259e-01, 3.93322259e-01, 2.90409714e-01, 6.75169677e-02,
          4.28468466e-01, 4.28468466e-01, 4.28468466e-01, 1.43268660e-01,
          2.50648074e-02, 5.65147847e-02, 4.28468466e-01, 4.28468466e-01,
          2.31182888e-01, 4.29764956e-01, 4.29764956e-01, 2.23933578e-01,
          0., 0., 4.29764956e-01, 4.29764956e-01, 4.29764956e-01,
          1.48563817e-01, 7.61766583e-02, 3.22327048e-01, 4.29680586e-01,
          4.29680586e-01, 0., 2.70191114e-02, 4.29680586e-01,
          4.29680586e-01, 3.83116782e-01, 4.23876613e-01, 4.23876613e-01,
          4.23876613e-01, 2.53842957e-02, 3.15636806e-02, 4.15655822e-02,
          3.06660146e-01, 4.23876613e-01, 4.23876613e-01, 4.17529643e-01,
          4.17529643e-01, 4.17529643e-01, 0., 4.09139022e-02,
          4.17529643e-01, 4.17529643e-01, 1.61970779e-01, 3.10267001e-01,
          1.64997220e-01, 2.59702086e-01, 2.35192664e-02, 0., 0.,
          6.63220942e-01, 6.63220942e-01, 1.29337326e-01, 4.12822738e-02,
          1.11492537e-01, 1.06698006e-01, 5.43299735e-01, 5.43299735e-01,
          5.43299735e-01, 0., 3.48777547e-02, 1.93848997e-01,
          2.15503395e-01, 4.57741618e-01, 1.51807636e-01, 6.87593743e-02,
          3.50725532e-01, 4.90692854e-01, 4.90692854e-01, 4.84936088e-02,
          7.64627904e-02, 3.80831838e-01, 5.54076023e-02, 6.31956756e-02,
          3.74372900e-02, 0., 6.48392081e-01, 6.48392081e-01,
          3.78943980e-01, 3.89959454e-03, 2.49581914e-02, 0., 0., 0., 0.,
          0., 7.03990638e-01, 7.03990638e-01, 4.20348234e-02, 0. ]
      - [ 6.94944918e-01, 6.94944918e-01, 1.64820686e-01, 0., 0., 0., 0.,
          0., 0., 6.69180870e-01, 6.69180870e-01, 7.91289806e-02, 0.,
          7.49633610e-02, 1.63657635e-01, 1.36421978e-01, 6.37188461e-03,
          2.00990096e-01, 4.13113505e-01, 3.37366223e-01, 5.99093996e-02,
          3.34034592e-01, 4.13113505e-01, 3.51914585e-01, 1.86130911e-01,
          3.10503095e-01, 4.13113505e-01, 1.20465003e-01, 2.54120249e-02,
          1.22360207e-01, 3.23574811e-01, 1.59594581e-01, 6.64831419e-03,
          5.27379751e-01, 5.27379751e-01, 5.27379751e-01, 6.11987412e-01,
          6.11987412e-01, 3.58931839e-01, 0., 1.44251108e-01,
          3.00742328e-01, 6.85963258e-02, 6.36024447e-03, 0.,
          3.91968459e-01, 3.91968459e-01, 3.44057381e-01, 0.,
          3.91968459e-01, 3.91968459e-01, 3.91968459e-01, 3.30910921e-01,
          3.20873223e-03, 1.75168402e-02, 2.73271620e-01, 4.13508713e-01,
          4.13508713e-01, 4.13508713e-01, 4.13508713e-01, 4.13508713e-01,
          2.56188840e-01, 1.74611527e-02, 0., 3.79155248e-01,
          4.73085165e-01, 3.90070528e-01, 3.87447663e-02, 4.83894907e-03,
          4.73085165e-01, 4.73085165e-01, 1.62504882e-01, 2.95459211e-01,
          4.15243864e-01, 4.15243864e-01, 2.48287529e-01, 3.96382540e-01,
          4.15243864e-01, 4.15243864e-01, 8.94118752e-03, 0.,
          2.05165911e-02, 3.71734619e-01, 3.98087174e-01, 3.98087174e-01,
          2.23081216e-01, 3.98087174e-01, 3.98087174e-01, 3.98087174e-01,
          1.23626389e-01, 4.04579312e-01, 4.04579312e-01, 4.04579312e-01,
          1.10264726e-01, 2.24404759e-03, 4.10919115e-02, 4.04579312e-01,
          4.04579312e-01, 4.04579312e-01, 2.12980404e-01, 4.44132388e-01,
          4.44132388e-01, 0., 0., 3.99228692e-01, 4.44132388e-01,
          4.44132388e-01, 4.24883515e-02, 0., 1.08961374e-01,
          4.62518513e-01, 4.40832794e-01, 4.62518513e-01, 4.62518513e-01,
          3.83733630e-01, 1.23459855e-02, 0., 3.71979363e-02,
          2.46998265e-01, 5.65880120e-01, 5.65880120e-01, 5.02693832e-01,
          3.82936820e-02, 5.39492182e-02, 1.67005196e-01, 8.09200630e-02,
          4.20232236e-01, 1.13342516e-01, 1.63515061e-01, 4.60297585e-01,
          4.60297585e-01, 4.05573338e-01, 8.36345404e-02, 1.56616211e-01,
          3.99327636e-01, 1.54971957e-01, 1.35043517e-01, 5.49322106e-02,
          0., 5.56719780e-01, 5.56719780e-01, 5.56719780e-01,
          1.17893152e-01, 7.38945380e-02 ]
      - [ 4.03666794e-01, 4.08160686e-01, 4.08160686e-01, 0., 0., 0.,
          4.08160686e-01, 4.08160686e-01, 4.08160686e-01, 4.46215838e-01,
          4.46215838e-01, 0., 0., 0., 0., 4.46215838e-01, 4.46215838e-01,
          4.46215838e-01, 5.14480293e-01, 5.58832347e-01, 5.58832347e-01,
          7.08914772e-02, 0., 0., 1.31076723e-01, 1.06935054e-01,
          2.67395914e-01, 4.10174847e-01, 4.10174847e-01, 4.10174847e-01,
          2.03694962e-02, 0., 0., 4.10174847e-01, 4.10174847e-01,
          3.92772824e-01, 1.96993411e-01, 4.87769604e-01, 4.87769604e-01,
          0., 0., 0., 4.87769604e-01, 4.87769604e-01, 6.81554750e-02,
          4.48637247e-01, 4.48637247e-01, 2.33848423e-01, 0.,
          4.46814904e-03, 0., 4.48637247e-01, 4.48637247e-01,
          3.68391246e-01, 1.02926150e-01, 4.83980238e-01, 4.83980238e-01,
          1.10260453e-02, 7.93494110e-04, 0., 4.83980238e-01,
          4.83980238e-01, 2.17950985e-01, 0., 4.92966086e-01,
          5.00648260e-01, 5.21028973e-03, 0., 0., 5.00648260e-01,
          5.00648260e-01, 3.33408755e-03, 3.34281951e-01, 4.52966124e-01,
          4.52966124e-01, 5.42065203e-02, 9.77314264e-02, 4.14189339e-01,
          4.52966124e-01, 1.43599659e-01, 2.52056897e-01, 1.89929515e-01,
          3.53136182e-01, 3.53136182e-01, 3.53136182e-01, 3.53136182e-01,
          3.53136182e-01, 3.53136182e-01, 3.53136182e-01, 2.95740455e-01,
          4.02393103e-01, 4.02393103e-01, 4.02393103e-01, 1.38565123e-01,
          4.06989381e-02, 6.00171462e-02, 4.02393103e-01, 4.02393103e-01,
          4.02393103e-01, 2.15761974e-01, 4.42632496e-01, 4.42632496e-01,
          0., 0., 4.42632496e-01, 4.42632496e-01, 4.04966027e-01,
          3.65200937e-02, 3.65461246e-03, 2.44484141e-01, 4.32631105e-01,
          4.32631105e-01, 4.32631105e-01, 4.32631105e-01, 4.32631105e-01,
          5.54210274e-03, 3.65461246e-03, 3.48852389e-02, 1.92243442e-01,
          4.34783846e-01, 4.34783846e-01, 4.34783846e-01, 4.34783846e-01,
          4.34783846e-01, 9.08940807e-02, 6.35265931e-02, 3.94065827e-01,
          1.49020076e-01, 2.91963011e-01, 4.22650963e-01, 4.22650963e-01,
          4.22650963e-01, 1.83058754e-01, 1.14146642e-01, 3.88071060e-01,
          1.38290420e-01, 1.69295952e-01, 3.50515544e-02, 0.,
          5.13820291e-01, 5.74293733e-01, 5.74293733e-01, 1.29371613e-01,
          6.98317140e-02 ]
      - [ 6.28672898e-01, 6.28672898e-01, 0., 0., 0., 0., 0., 0.,
          4.50848073e-01, 6.76630914e-01, 6.76630914e-01, 0.,
          1.15226312e-02, 1.68458447e-01, 1.30085677e-01, 1.20147215e-02,
          0., 1.78909495e-01, 4.25993681e-01, 4.25993681e-01,
          6.99554756e-02, 3.18046063e-02, 2.78699636e-01, 6.93742037e-02,
          4.25993681e-01, 4.25993681e-01, 4.25993681e-01, 1.76962703e-01,
          7.34994235e-03, 2.20498275e-02, 0., 0., 0., 6.38029933e-01,
          6.38029933e-01, 3.84199977e-01, 5.52983642e-01, 5.52983642e-01,
          2.78342366e-01, 7.46418387e-02, 1.03499681e-01, 5.15271604e-01,
          4.02790830e-02, 0., 1.48360074e-01, 5.14526844e-01,
          5.14526844e-01, 1.16475813e-01, 2.53174417e-02, 3.66225064e-01,
          5.14526844e-01, 1.72794044e-01, 0., 1.49872288e-01,
          1.61431938e-01, 3.99209499e-01, 3.99209499e-01, 9.99595448e-02,
          3.99209499e-01, 3.99209499e-01, 3.99209499e-01, 3.99209499e-01,
          6.12402298e-02, 2.53836453e-01, 7.17129707e-02, 2.15138912e-01,
          0., 0., 0., 5.41213095e-01, 5.41213095e-01, 5.41213095e-01,
          1.60489127e-01, 4.41349506e-01, 4.41349506e-01, 4.27259833e-01,
          4.41349506e-01, 4.41349506e-01, 9.01450589e-02, 0., 0.,
          4.15135235e-01, 4.15135235e-01, 4.15135235e-01, 4.15135235e-01,
          2.86402375e-01, 4.15135235e-01, 9.05401930e-02, 0.,
          2.09625483e-01, 3.55027169e-01, 3.55027169e-01, 3.55027169e-01,
          3.55027169e-01, 3.55027169e-01, 1.12978429e-01, 3.55027169e-01,
          3.18400681e-01, 3.55027169e-01, 4.19527382e-01, 1.58850998e-02,
          4.76553030e-02, 0., 3.36555570e-01, 4.19527382e-01,
          4.19527382e-01, 4.19527382e-01, 4.19527382e-01, 0.,
          4.26338017e-02, 1.27901405e-01, 2.05630839e-01, 7.15077877e-01,
          6.48895383e-01, 0., 0., 0., 7.30560422e-02, 3.50120991e-01,
          5.37132144e-01, 5.37132144e-01, 5.37132144e-01, 1.15126036e-02,
          0., 0., 3.23826037e-02, 2.92326082e-02, 2.15480417e-01,
          4.31510746e-01, 4.31510746e-01, 4.31510746e-01, 4.31510746e-01,
          4.31510746e-01, 1.29293889e-01, 2.60513108e-02, 3.36361974e-02,
          1.55357830e-02, 5.90317324e-02, 8.71608332e-02, 5.36971271e-01,
          5.36971271e-01, 5.36971271e-01, 3.39655548e-01, 4.24583368e-02 ]
      - [ 3.99621516e-01, 3.99621516e-01, 3.99621516e-01, 0., 0.,
          2.82728761e-01, 3.99621516e-01, 3.99621516e-01, 3.42907310e-01,
          3.66187632e-01, 4.27280277e-01, 4.15298790e-01, 0., 0.,
          2.69038469e-01, 4.27280277e-01, 4.27280277e-01, 2.62827575e-01,
          5.93749940e-01, 5.93749940e-01, 3.88533413e-01, 3.89485955e-02,
          2.41712704e-01, 1.11173198e-01, 6.00575842e-02, 1.47367921e-02,
          2.48815879e-01, 4.77253109e-01, 2.15399966e-01, 7.06521869e-02,
          4.07762565e-02, 1.73665449e-01, 3.06563098e-02, 4.77253109e-01,
          4.77253109e-01, 4.77253109e-01, 4.93239611e-02, 4.65117216e-01,
          4.65117216e-01, 0., 0., 3.57190937e-01, 4.65117216e-01,
          4.65117216e-01, 0., 4.66319412e-01, 4.66319412e-01,
          4.66319412e-01, 0., 0., 2.56152958e-01, 4.66319412e-01,
          2.44770542e-01, 0., 3.64260435e-01, 4.44131672e-01,
          4.44131672e-01, 1.07160263e-01, 2.13126943e-01, 4.44131672e-01,
          4.44131672e-01, 1.30161747e-01, 4.20446275e-03, 1.43841850e-02,
          3.86608869e-01, 5.03997922e-01, 1.24817789e-01, 1.84852406e-01,
          1.82866856e-01, 5.03997922e-01, 5.03997922e-01, 7.82033987e-03,
          1.02958813e-01, 3.72960895e-01, 4.41236079e-01, 4.07145411e-01,
          0., 0., 4.41236079e-01, 4.41236079e-01, 3.09930444e-01,
          3.95340353e-01, 3.95340353e-01, 3.95340353e-01, 4.51537129e-03,
          0., 3.92014921e-01, 3.95340353e-01, 3.60823244e-01,
          2.94932395e-01, 6.89767301e-02, 4.77405041e-01, 4.77405041e-01,
          0., 0., 4.77405041e-01, 4.77405041e-01, 2.80733824e-01,
          4.29214037e-04, 0., 4.88604963e-01, 5.01982033e-01, 0., 0.,
          1.71418041e-02, 5.01982033e-01, 5.01982033e-01, 0.,
          1.51965052e-01, 1.46344304e-01, 5.34913003e-01, 5.34913003e-01,
          5.34913003e-01, 0., 4.64864410e-02, 1.72194734e-01,
          2.44826704e-01, 3.25350940e-01, 2.25821838e-01, 5.76350428e-02,
          1.92626387e-01, 4.91159022e-01, 4.91159022e-01, 4.91159022e-01,
          9.88305360e-02, 2.53653198e-01, 1.58129614e-02, 4.54515696e-01,
          4.62624043e-01, 2.63522655e-01, 2.34613866e-01, 4.62624043e-01,
          4.62624043e-01, 1.48296759e-01, 1.28065306e-03, 0.,
          3.11278194e-01, 3.87134433e-01, 3.87134433e-01, 3.87134433e-01,
          3.87134433e-01, 3.87134433e-01, 3.87134433e-01, 0. ]
      - [ 4.78822470e-01, 4.78822470e-01, 4.78822470e-01, 0., 0.,
          1.39007673e-01, 1.25834346e-01, 3.13085288e-01, 4.17402655e-01,
          3.83136004e-01, 3.83136004e-01, 3.39725405e-01, 0., 0.,
          3.83136004e-01, 3.83136004e-01, 3.83136004e-01, 3.83136004e-01,
          0., 0., 0., 0., 0., 0., 7.04615593e-01, 7.04615593e-01, 0., 0.,
          0., 0., 0., 0., 0., 0., 0., 0., 4.31551486e-01, 4.54226315e-01,
          4.54226315e-01, 0., 0., 3.91923040e-01, 4.54226315e-01,
          1.91422835e-01, 3.91084515e-03, 1.21705748e-01, 3.40970725e-01,
          2.67051548e-01, 0., 0., 5.13193846e-01, 5.13193846e-01,
          5.13193846e-01, 4.87967841e-02, 6.54156327e-01, 0., 0., 0., 0.,
          0., 3.51945043e-01, 1.17315002e-01, 6.54156327e-01,
          7.04615593e-01, 0., 0., 0., 0., 0., 0., 0., 7.04615593e-01,
          3.72610480e-01, 4.37740296e-01, 4.37740296e-01, 1.73364077e-02,
          0., 1.86008766e-01, 4.37740296e-01, 4.22939807e-01,
          2.61077136e-01, 4.79550093e-01, 2.77836144e-01, 2.33813357e-02,
          0., 0., 2.54428774e-01, 4.79550093e-01, 4.03524160e-01,
          4.79550093e-01, 5.75680375e-01, 5.75680375e-01, 0., 0., 0., 0.,
          0., 5.27779758e-03, 5.75680375e-01, 4.98753130e-01, 0., 0., 0.,
          0., 0., 4.98753130e-01, 4.98753130e-01, 4.98753130e-01,
          4.19492163e-02, 2.75407493e-01, 5.51665127e-01, 5.51665127e-01,
          5.51665127e-01, 0., 2.30841544e-02, 2.27562021e-02,
          5.31803519e-02, 3.25396836e-01, 2.45641023e-02, 0.,
          2.41527464e-02, 8.83038938e-01, 0., 8.15005787e-03,
          2.29054745e-02, 3.22134227e-01, 1.74130261e-01, 5.92427626e-02,
          0., 0., 9.67837036e-01, 0., 0., 5.09527919e-04, 1.40730500e-01,
          1.69022623e-02, 0., 0., 0., 4.97294098e-01, 4.97294098e-01,
          4.97294098e-01, 4.97294098e-01, 7.44435191e-02 ]
      - [ 5.60088277e-01, 5.60088277e-01, 3.68543059e-01, 0.,
          3.21932942e-01, 2.54352927e-01, 9.54388380e-02, 2.62239967e-02,
          2.30331600e-01, 4.68900532e-01, 3.40016186e-01, 2.67583993e-03,
          0., 4.68900532e-01, 4.68900532e-01, 1.49893519e-02,
          1.62213563e-03, 4.68900532e-01, 4.45715517e-01, 3.94699769e-03,
          4.31764796e-02, 4.45715517e-01, 4.45715517e-01, 1.59946959e-02,
          1.00278072e-02, 4.45715517e-01, 4.45715517e-01, 4.01292920e-01,
          2.36748438e-02, 9.12698582e-02, 2.11694673e-01, 1.66513428e-01,
          0., 5.00842512e-01, 5.00842512e-01, 5.00842512e-01,
          1.39291570e-01, 4.24641699e-01, 4.24641699e-01, 0.,
          3.15603197e-01, 4.00954217e-01, 4.24641699e-01, 4.18348819e-01,
          2.98761576e-03, 2.72378623e-02, 3.17958519e-02, 6.24610810e-03,
          0., 5.66564023e-01, 5.66564023e-01, 5.66564023e-01,
          1.71703652e-01, 9.15817916e-03, 1.46090463e-02, 3.58430475e-01,
          5.36595762e-01, 5.36595762e-01, 5.36595762e-01, 3.80960666e-02,
          6.29092194e-03, 1.38162728e-02, 2.16477960e-02, 7.65841408e-03,
          3.87274534e-01, 4.87334937e-01, 3.26796353e-01, 1.41233250e-01,
          0., 4.87334937e-01, 4.87334937e-01, 7.65751377e-02,
          7.00505450e-02, 3.40561509e-01, 4.25194025e-01, 4.25194025e-01,
          0., 0., 4.25194025e-01, 4.25194025e-01, 3.89491349e-01,
          5.32625496e-01, 8.13446194e-03, 2.66179554e-02, 1.55358939e-02,
          0., 0., 3.77617747e-01, 5.32625496e-01, 5.32625496e-01,
          4.98443902e-01, 4.98443902e-01, 4.98443902e-01, 0., 0.,
          3.25282551e-02, 1.30845141e-02, 2.69005192e-03, 4.98443902e-01,
          2.12465957e-01, 4.57042664e-01, 4.57042664e-01, 0., 0.,
          3.35938573e-01, 4.57042664e-01, 4.57042664e-01, 4.34320755e-02,
          9.92191285e-02, 1.18742183e-01, 5.42983353e-01, 5.42983353e-01,
          5.42983353e-01, 0., 3.45474742e-02, 1.86985031e-01,
          2.23570406e-01, 5.18082917e-01, 3.97874229e-03, 3.95415388e-02,
          1.93659678e-01, 5.83746433e-01, 0., 1.97912892e-03,
          7.17913657e-02, 5.83746433e-01, 5.53452492e-01, 9.32492614e-02,
          8.22160859e-03, 0., 5.53452492e-01, 4.00464535e-01,
          6.10905141e-02, 1.80357718e-03, 4.57147241e-01, 1.55101418e-01,
          1.30562529e-01, 5.64724766e-02, 0., 5.57433307e-01,
          5.57433307e-01, 5.57433307e-01, 1.13514990e-01, 7.11335614e-02 ]
      - [ 6.33141577e-01, 6.33141577e-01, 3.69782388e-01, 0.,
          7.88374916e-02, 6.40130714e-02, 1.18695814e-02, 0.,
          2.11540133e-01, 4.64804083e-01, 4.64804083e-01, 6.89603761e-02,
          5.52729256e-02, 2.92874575e-01, 6.20333031e-02, 1.83716461e-01,
          4.64804083e-01, 4.64804083e-01, 4.05550569e-01, 4.05550569e-01,
          4.05550569e-01, 9.55038518e-02, 0., 0., 4.05550569e-01,
          4.05550569e-01, 4.05550569e-01, 4.45987374e-01, 3.19969505e-01,
          1.30313873e-01, 3.78415994e-02, 0., 0., 4.59993511e-01,
          4.81610209e-01, 4.81610209e-01, 2.05622390e-01, 4.60769862e-01,
          4.60769862e-01, 0., 1.26229182e-01, 4.60769862e-01,
          4.60769862e-01, 2.95901388e-01, 1.97513960e-02, 5.35339378e-02,
          3.74221534e-01, 3.74221534e-01, 3.74221534e-01, 3.74221534e-01,
          3.74221534e-01, 3.74221534e-01, 3.74221534e-01, 1.14468522e-01,
          5.60842268e-02, 4.27194268e-01, 4.27194268e-01, 4.27194268e-01,
          0., 1.67660490e-01, 4.27194268e-01, 4.27194268e-01,
          2.28040084e-01, 2.73815747e-02, 2.54715592e-01, 5.23028314e-01,
          2.51003474e-01, 0., 0., 5.23028314e-01, 5.23028314e-01,
          2.13232890e-01, 7.97346011e-02, 4.07763988e-01, 4.33950007e-01,
          4.33950007e-01, 4.60936427e-02, 1.93461049e-02, 4.33950007e-01,
          4.33950007e-01, 2.59396732e-01, 3.99188071e-01, 3.99188071e-01,
          3.99188071e-01, 1.12941794e-01, 1.99715886e-02, 1.63556576e-01,
          3.99188071e-01, 3.99188071e-01, 3.99188071e-01, 3.83343309e-01,
          3.83343309e-01, 3.83343309e-01, 3.68333235e-02, 1.63056783e-03,
          3.83343309e-01, 3.83343309e-01, 3.83343309e-01, 3.36300850e-01,
          1.36637196e-01, 3.26190799e-01, 3.68209898e-01, 1.05671408e-02,
          5.62187925e-04, 4.94664669e-01, 4.94664669e-01, 4.94664669e-01,
          1.48166474e-02, 2.20344272e-02, 1.34606883e-01, 5.69822073e-01,
          5.69822073e-01, 5.69822073e-01, 0., 8.49258678e-04,
          2.14783493e-02, 3.39384377e-02, 9.71785337e-02, 4.94765975e-02,
          9.12154689e-02, 6.87811494e-01, 6.98499620e-01, 0.,
          1.47888614e-02, 3.47854532e-02, 1.01982318e-01, 1.65526375e-01,
          7.03411549e-02, 4.04117221e-04, 0., 6.97359741e-01,
          6.46973073e-01, 1.92379236e-01, 5.07795587e-02, 1.27351373e-01,
          1.78673137e-02, 1.67211834e-02, 6.43702107e-04, 0.,
          5.67466676e-01, 5.67466676e-01, 5.67466676e-01, 1.66194156e-01,
          7.65015138e-03 ]
      - [ 5.43864906e-01, 5.43864906e-01, 3.19916397e-01, 0.,
          6.96781650e-02, 0., 0., 0., 5.43864906e-01, 5.05818129e-01,
          5.05818129e-01, 9.57716443e-03, 0., 1.34426981e-01,
          1.43198445e-02, 9.40123945e-03, 4.57095712e-01, 5.05818129e-01,
          4.55013752e-01, 4.55013752e-01, 3.20114084e-02, 9.64599103e-02,
          3.62248957e-01, 1.47276759e-01, 6.37253895e-02, 4.55013752e-01,
          4.55013752e-01, 1.44269362e-01, 1.13189798e-02, 3.55910771e-02,
          4.13221680e-02, 7.07523897e-02, 9.12780780e-03, 4.63219970e-01,
          6.12497509e-01, 6.12497509e-01, 1.96280614e-01, 4.93630946e-01,
          4.93630946e-01, 1.22231737e-01, 2.46382385e-01, 2.66487509e-01,
          4.93630946e-01, 2.78630555e-01, 3.51238735e-02, 1.04359336e-01,
          3.80158156e-01, 3.80158156e-01, 3.80158156e-01, 3.80158156e-01,
          3.80158156e-01, 3.80158156e-01, 3.13741624e-01, 1.40556350e-01,
          3.47788855e-02, 3.25729847e-01, 3.91157448e-01, 3.91157448e-01,
          3.91157448e-01, 3.91157448e-01, 3.91157448e-01, 3.42036873e-01,
          8.22966844e-02, 1.63959325e-04, 2.37790778e-01, 5.33758819e-01,
          1.71745017e-01, 6.43144995e-02, 2.76082940e-02, 5.33758819e-01,
          5.33758819e-01, 2.21437693e-01, 6.39934167e-02, 4.30437773e-01,
          4.30437773e-01, 4.30437773e-01, 7.68327992e-03, 1.90010648e-02,
          4.30437773e-01, 4.03992683e-01, 2.94734567e-01, 3.50082874e-01,
          4.04118121e-01, 4.04118121e-01, 1.06078982e-01, 1.91892520e-01,
          9.36593488e-02, 4.04118121e-01, 4.04118121e-01, 4.04118121e-01,
          4.04344946e-01, 4.04344946e-01, 4.04344946e-01, 4.28467728e-02,
          7.20875189e-02, 8.92138481e-02, 4.04344946e-01, 4.04344946e-01,
          4.04344946e-01, 8.80536810e-02, 3.22258651e-01, 4.57754672e-01,
          3.37204058e-03, 6.34116633e-03, 4.72515732e-01, 4.72515732e-01,
          4.72515732e-01, 6.53612688e-02, 1.65946949e-02, 9.56662223e-02,
          5.71761310e-01, 5.71761310e-01, 5.71761310e-01, 5.26020452e-02,
          0., 1.16731338e-02, 3.50280851e-02, 6.10621348e-02,
          1.23787187e-02, 2.44717985e-01, 5.52100837e-01, 5.52100837e-01,
          5.52100837e-01, 9.62322727e-02, 1.98649429e-02, 8.13436434e-02,
          1.07335418e-01, 3.25356610e-02, 1.42395765e-01, 5.53987086e-01,
          5.53987086e-01, 5.53987086e-01, 1.30179524e-01, 6.56322464e-02,
          1.40187159e-01, 2.43959706e-02, 1.58335567e-02, 1.19367354e-02,
          0., 5.52158773e-01, 5.52158773e-01, 5.52158773e-01,
          2.80003071e-01, 2.13996600e-02 ]
      - [ 4.07416642e-01, 4.07416642e-01, 4.07416642e-01, 0., 0., 0.,
          4.07416642e-01, 4.07416642e-01, 4.07416642e-01, 4.95425373e-01,
          2.88764030e-01, 0., 0., 0., 0., 4.95425373e-01, 4.95425373e-01,
          4.18722332e-01, 5.75688422e-01, 5.75688422e-01, 0., 0., 0., 0.,
          0., 0., 5.75688422e-01, 4.70165074e-01, 3.33291292e-01, 0., 0.,
          0., 0., 4.70165074e-01, 4.70165074e-01, 4.70165074e-01,
          1.27740219e-01, 4.93421704e-01, 4.93421704e-01, 0., 0., 0.,
          4.93421704e-01, 4.93421704e-01, 6.99609891e-02, 5.09766519e-01,
          5.09766519e-01, 0., 0., 1.11845993e-02, 2.11090539e-02,
          5.09766519e-01, 4.03225154e-01, 2.28389919e-01, 4.56209719e-01,
          4.56209719e-01, 0., 0., 4.56209719e-01, 4.03650790e-01, 0., 0.,
          4.56209719e-01, 3.80746096e-01, 6.57854527e-02, 0., 0.,
          4.47266668e-01, 3.92668635e-01, 4.47266668e-01, 4.47266668e-01,
          3.03159893e-01, 1.99123427e-01, 6.36917055e-01, 6.36917055e-01,
          0., 8.98473896e-03, 8.05054381e-02, 3.03800106e-01,
          1.31434351e-01, 1.62888616e-01, 4.56211329e-01, 3.67169172e-01,
          0., 0., 4.21062917e-01, 4.69753891e-01, 4.69753891e-01,
          7.37241432e-02, 1.68224365e-01, 2.07731221e-02, 1.56498663e-02,
          0., 0., 6.99189484e-01, 6.99189484e-01, 1.20832019e-01, 0.,
          3.39960284e-03, 0., 0., 0., 0., 5.68785548e-01, 5.68785548e-01,
          5.68785548e-01, 1.54173136e-01, 0., 0., 3.41906220e-01,
          4.53191131e-01, 4.53191131e-01, 4.53191131e-01, 4.53191131e-01,
          2.38839939e-01, 0., 0., 0., 0., 0., 0., 5.75688422e-01,
          5.75688422e-01, 5.75688422e-01, 0., 0., 0., 0., 0., 0.,
          5.91843605e-01, 5.91843605e-01, 5.41786492e-01, 0., 0., 0., 0.,
          0., 0., 9.95024860e-01, 0., 0., 0., 0. ]
      - [ 6.54050708e-01, 6.54050708e-01, 3.36934835e-01, 0.,
          5.93657941e-02, 3.78489634e-03, 0., 0., 1.44367069e-01,
          5.76327622e-01, 5.13929307e-01, 1.27855325e-02, 6.59519900e-03,
          2.56033868e-01, 7.34646246e-03, 6.72537542e-04, 2.24179210e-04,
          5.76327622e-01, 5.60971320e-01, 1.69939172e-04, 5.09817502e-04,
          5.19029330e-03, 2.22601667e-01, 0., 2.74399836e-02,
          5.60971320e-01, 5.60971320e-01, 1.14170760e-01, 0., 0.,
          1.72368647e-03, 4.34877425e-02, 0., 4.83883888e-01,
          6.10259831e-01, 6.10259831e-01, 2.37087026e-01, 4.77083832e-01,
          4.77083832e-01, 0., 2.67724395e-01, 3.47583681e-01,
          4.77083832e-01, 2.51227230e-01, 2.43261959e-02, 1.67587120e-02,
          4.03513491e-01, 4.03513491e-01, 3.65641564e-01, 4.03513491e-01,
          4.03513491e-01, 4.03513491e-01, 2.15272084e-01, 3.91994268e-02,
          6.80142362e-03, 3.34426522e-01, 4.01867390e-01, 4.01867390e-01,
          4.01867390e-01, 4.01867390e-01, 4.01867390e-01, 2.67415047e-01,
          7.14160427e-02, 1.73948240e-03, 1.95746854e-01, 5.36688805e-01,
          1.49763048e-01, 1.29362762e-01, 4.76799719e-02, 5.36688805e-01,
          5.36688805e-01, 2.25341544e-01, 0., 4.06852216e-01,
          4.45578158e-01, 4.45578158e-01, 5.22049516e-03, 6.41439110e-02,
          4.45578158e-01, 4.45578158e-01, 1.78098992e-01, 0.,
          4.33760941e-01, 4.33760941e-01, 4.33760941e-01, 1.97226796e-02,
          9.01891738e-02, 4.33760941e-01, 4.33760941e-01, 2.15409860e-01,
          3.89713526e-01, 3.89713526e-01, 3.89713526e-01, 2.15729341e-01,
          1.45674610e-04, 1.95723772e-01, 3.89713526e-01, 3.89713526e-01,
          3.89713526e-01, 9.63015258e-02, 2.99758971e-01, 4.72103447e-01,
          1.01668155e-02, 1.70606538e-04, 4.72103447e-01, 4.72103447e-01,
          4.72103447e-01, 6.72693849e-02, 0., 1.17959686e-01,
          4.47731018e-01, 4.47731018e-01, 4.47731018e-01, 4.47731018e-01,
          4.04928595e-01, 1.25178099e-01, 1.11557562e-02, 0.,
          1.06026344e-01, 4.41572756e-01, 4.41572756e-01, 3.13526273e-01,
          4.41572756e-01, 4.41572756e-01, 3.25445384e-01, 1.37164136e-02,
          1.17122680e-01, 4.75677401e-02, 2.71373242e-01, 5.40359497e-01,
          5.40359497e-01, 5.34111917e-01, 1.08510457e-01, 7.54400119e-02,
          1.35136142e-01, 2.78355125e-02, 1.69076566e-02, 1.63412336e-02,
          0., 5.70012152e-01, 5.70012152e-01, 5.70012152e-01,
          1.32880881e-01, 2.41126642e-02 ]
      - [ 4.98735964e-01, 4.98735964e-01, 4.98735964e-01, 0.,
          8.28397740e-03, 0., 0., 0., 4.98735964e-01, 5.47941625e-01,
          2.66974512e-02, 0., 0., 4.10602652e-02, 0., 3.02340001e-01,
          5.47941625e-01, 5.47941625e-01, 3.83599013e-01, 4.25011396e-01,
          4.25011396e-01, 7.81987906e-02, 0., 0., 3.46341580e-01,
          4.25011396e-01, 4.25011396e-01, 1.78943172e-01, 2.11309984e-01,
          3.22957039e-01, 3.32097039e-02, 0., 0., 5.20488620e-01,
          5.20488620e-01, 5.20488620e-01, 2.05044806e-01, 4.94115740e-01,
          4.94115740e-01, 4.33136858e-02, 2.40714148e-01, 3.57465297e-01,
          4.94115740e-01, 1.73198745e-01, 5.45151383e-02, 9.57956016e-02,
          3.22464585e-01, 4.07261193e-01, 2.05806613e-01, 4.07261193e-01,
          4.07261193e-01, 4.07261193e-01, 4.07261193e-01, 1.05387561e-01,
          1.26525247e-03, 4.44733590e-01, 4.44733590e-01, 4.44733590e-01,
          0., 6.96377233e-02, 4.44733590e-01, 4.44733590e-01,
          4.20342684e-02, 0., 2.44484752e-01, 5.28507173e-01,
          2.63336062e-01, 0., 0., 5.28507173e-01, 5.28507173e-01,
          1.66264504e-01, 0., 4.98615503e-01, 4.98615503e-01,
          9.52496007e-02, 9.04471427e-02, 1.34666204e-01, 4.98615503e-01,
          4.62363154e-01, 0., 1.25323953e-02, 4.43772793e-01,
          4.43772793e-01, 4.43772793e-01, 3.70310508e-02, 8.38732570e-02,
          4.43772793e-01, 4.43772793e-01, 4.82959077e-02, 4.03289646e-01,
          4.03289646e-01, 4.03289646e-01, 1.38638496e-01, 5.97351044e-03,
          2.93175951e-02, 4.03289646e-01, 4.03289646e-01, 4.03289646e-01,
          1.03880845e-01, 3.25414419e-01, 4.57931638e-01, 1.03130927e-02,
          6.40326319e-03, 4.71092790e-01, 4.71092790e-01, 4.71092790e-01,
          5.45420311e-02, 0., 2.18799621e-01, 4.28955168e-01,
          4.28955168e-01, 4.28955168e-01, 4.23842967e-01, 4.28955168e-01,
          1.79412499e-01, 0., 7.11263204e-03, 7.82667473e-02,
          4.81447220e-01, 4.81447220e-01, 4.81447220e-01, 1.64045244e-01,
          4.81447220e-01, 1.86505824e-01, 1.24073615e-02, 1.42791674e-01,
          3.14898454e-02, 2.57633388e-01, 5.39263248e-01, 5.39263248e-01,
          5.39263248e-01, 9.75331888e-02, 4.54152524e-02, 1.51224419e-01,
          2.53132116e-02, 1.52089549e-02, 1.14658559e-02, 0.,
          5.65604150e-01, 5.65604150e-01, 5.65604150e-01, 1.82369843e-01,
          1.91161800e-02 ]
      - [ 7.04615593e-01, 7.04615593e-01, 0., 0., 0., 0., 0., 0., 0.,
          7.04021215e-01, 7.04021215e-01, 0., 0., 0., 0., 0., 0.,
          4.09941562e-02, 4.46215838e-01, 4.46215838e-01, 0., 0., 0., 0.,
          4.46215838e-01, 4.46215838e-01, 4.46215838e-01, 1.99261472e-01,
          0., 0., 0., 0., 0., 6.34780049e-01, 6.34780049e-01,
          3.84793073e-01, 6.95780158e-01, 6.95780158e-01, 1.16600148e-01,
          0., 0., 0., 0., 0., 1.06012642e-01, 4.77382392e-01,
          4.77382392e-01, 8.34493265e-02, 1.66473631e-02, 3.83399814e-01,
          4.77382392e-01, 3.76038462e-01, 1.06649451e-01, 6.73405677e-02,
          2.50607282e-01, 3.31829727e-01, 4.31919068e-01, 7.15407580e-02,
          4.31919068e-01, 2.13224992e-01, 4.31919068e-01, 4.31919068e-01,
          1.61156312e-01, 4.98614222e-01, 7.45268213e-03, 2.23580450e-02,
          0., 0., 0., 4.98614222e-01, 4.98614222e-01, 4.98614222e-01,
          5.42999327e-01, 5.42999327e-01, 5.42999327e-01, 1.36764675e-01,
          3.01042646e-01, 0., 0., 0., 2.64796633e-02, 3.99900556e-01,
          3.85804862e-01, 8.92536640e-02, 1.18360976e-02, 3.99900556e-01,
          3.41312319e-01, 3.99900556e-01, 2.87883997e-01, 3.99900556e-01,
          3.73647183e-01, 3.73647183e-01, 3.73647183e-01, 4.38245498e-02,
          3.73647183e-01, 1.30617663e-01, 3.73647183e-01, 3.73647183e-01,
          3.73647183e-01, 4.90498602e-01, 2.46808375e-03, 7.40424963e-03,
          0., 1.35787651e-01, 1.19357802e-01, 4.90498602e-01,
          4.90498602e-01, 4.90498602e-01, 0., 2.14757338e-01,
          5.90438604e-01, 5.00747621e-01, 5.90438604e-01, 0., 0., 0., 0.,
          0., 0., 2.12696660e-02, 4.33174670e-01, 8.96084011e-01, 0., 0.,
          0., 0., 0., 0., 8.45108330e-02, 5.69722354e-01, 5.69722354e-01,
          5.69722354e-01, 1.15836985e-01, 0., 0., 0., 0., 0.,
          2.31893416e-02, 5.43121755e-01, 5.43121755e-01, 5.43121755e-01,
          3.30294877e-01, 0. ]
      - [ 4.35196161e-01, 4.35196161e-01, 4.22890186e-01, 0., 0.,
          4.64721732e-02, 2.62468368e-01, 4.35196161e-01, 4.21402663e-01,
          2.38928407e-01, 2.49732807e-01, 2.42281705e-02, 0., 0.,
          1.34371236e-01, 5.34343183e-01, 5.34343183e-01, 5.34343183e-01,
          4.88371044e-01, 4.88371044e-01, 4.88371044e-01, 1.23274297e-01,
          0., 0., 8.79824162e-02, 2.44619399e-01, 4.43652362e-01,
          2.60881454e-01, 3.22006822e-01, 2.34964430e-01, 3.43060158e-02,
          0., 0., 5.05574942e-01, 5.05574942e-01, 5.05574942e-01,
          1.47116542e-01, 4.60904121e-01, 4.60904121e-01, 0., 0.,
          4.09041137e-01, 4.60904121e-01, 4.09306556e-01, 4.01086621e-02,
          3.85971904e-01, 3.85971904e-01, 3.19840789e-01, 0., 0.,
          3.85971904e-01, 3.85971904e-01, 3.85971904e-01, 3.85971904e-01,
          3.22745442e-01, 4.16625232e-01, 4.16625232e-01, 4.16625232e-01,
          0., 0., 3.14295292e-01, 4.16625232e-01, 3.13983470e-01,
          1.27134668e-02, 2.47776479e-01, 5.29942572e-01, 2.51374185e-01,
          0., 0., 5.29942572e-01, 5.29942572e-01, 1.65669516e-01,
          1.56275213e-01, 4.44356412e-01, 4.44356412e-01, 4.44356412e-01,
          2.29138993e-02, 1.86377652e-02, 4.44356412e-01, 3.42643738e-01,
          2.51101375e-01, 4.00189966e-01, 4.00189966e-01, 4.00189966e-01,
          4.54706326e-02, 1.79237127e-01, 2.99388729e-02, 4.00189966e-01,
          4.00189966e-01, 4.00189966e-01, 4.05427039e-01, 4.05427039e-01,
          4.05427039e-01, 3.50809284e-02, 7.48404413e-02, 5.37734404e-02,
          4.05427039e-01, 4.05427039e-01, 4.05427039e-01, 1.32417619e-01,
          3.07909787e-01, 3.80605698e-01, 1.00200372e-02, 0.,
          4.95426327e-01, 4.95426327e-01, 4.95426327e-01, 3.74992527e-02,
          1.46666374e-02, 9.88335833e-02, 5.72230518e-01, 5.72230518e-01,
          5.72230518e-01, 3.97573262e-02, 0., 0., 1.94592327e-02,
          3.28340456e-02, 2.45726947e-03, 1.68688104e-01, 5.63675761e-01,
          5.63675761e-01, 5.63675761e-01, 1.00765683e-01, 8.12926982e-03,
          3.76908928e-02, 1.01110503e-01, 2.93309595e-02, 1.32310972e-01,
          5.48053026e-01, 5.48053026e-01, 5.48053026e-01, 2.34946862e-01,
          3.83548439e-02, 9.04418752e-02, 1.87143832e-02, 1.36259869e-02,
          1.35558366e-03, 0., 5.70559442e-01, 5.70559442e-01,
          5.70559442e-01, 1.30445138e-01, 1.16019715e-02 ]
      - [ 6.11804783e-01, 6.11804783e-01, 3.59744310e-01, 0., 0.,
          1.57209441e-01, 1.73853666e-01, 1.56572133e-01, 1.90815389e-01,
          4.18801636e-01, 4.18801636e-01, 7.68469349e-02, 0., 0.,
          3.90054226e-01, 4.18801636e-01, 4.18801636e-01, 3.69038522e-01,
          6.11525714e-01, 6.11525714e-01, 4.53725725e-01, 0., 0., 0.,
          1.15732089e-01, 3.85773629e-02, 1.58800051e-01, 4.46085364e-01,
          4.46085364e-01, 2.41565648e-02, 0., 0., 0., 4.46085364e-01,
          4.46085364e-01, 4.46085364e-01, 2.13734329e-01, 4.54477161e-01,
          4.54477161e-01, 4.61007431e-02, 0., 4.54477161e-01,
          4.54477161e-01, 3.47386032e-01, 2.78901868e-02, 4.36351269e-01,
          4.36351269e-01, 2.95735389e-01, 0., 0., 4.36351269e-01,
          4.36351269e-01, 3.78348172e-01, 5.85238338e-02, 4.97692972e-01,
          4.97692972e-01, 4.97692972e-01, 1.07968124e-02, 4.34025198e-01,
          1.47336543e-01, 2.03495979e-01, 1.79235581e-02, 0.,
          1.28895482e-02, 7.83479959e-02, 1.19230866e-01, 3.27686477e-03,
          1.31727949e-01, 1.16648963e-02, 6.91043317e-01, 6.91043317e-01,
          0., 1.42953619e-01, 3.84505421e-01, 4.67262477e-01,
          4.67262477e-01, 6.10749470e-03, 2.04673186e-02, 4.31939781e-01,
          3.78170460e-01, 2.45648488e-01, 3.92755985e-01, 3.92755985e-01,
          2.51262724e-01, 6.41894117e-02, 5.72665595e-02, 3.92755985e-01,
          3.92755985e-01, 3.92755985e-01, 3.92755985e-01, 1.02206998e-01,
          4.70623493e-01, 4.70623493e-01, 3.26801874e-02, 3.03117365e-01,
          4.70623493e-01, 4.70623493e-01, 7.68215209e-02, 7.57221552e-03,
          0., 2.73426652e-01, 5.48611343e-01, 1.11193135e-02,
          1.01861455e-01, 7.96034485e-02, 5.48611343e-01, 5.48611343e-01,
          0., 1.26213105e-02, 8.70048776e-02, 6.30469501e-01,
          6.30469501e-01, 4.33076322e-01, 5.66320121e-02, 0., 0.,
          1.51775824e-02, 4.24387567e-02, 2.92200758e-03, 6.43771663e-02,
          5.55820525e-01, 5.55820525e-01, 5.55820525e-01, 2.44159847e-01,
          2.11700890e-02, 4.02993895e-02, 1.38404628e-03, 4.16894972e-01,
          4.16894972e-01, 3.50650430e-01, 4.16894972e-01, 4.16894972e-01,
          4.16894972e-01, 6.22073822e-02, 9.59222321e-04, 0.,
          1.76621199e-01, 4.18927878e-01, 2.95156538e-01, 4.18927878e-01,
          4.18927878e-01, 4.18927878e-01, 4.18927878e-01, 0. ]
      - [ 5.47029495e-01, 5.47029495e-01, 5.47029495e-01, 0., 0., 0.,
          1.53977334e-01, 1.19138330e-01, 2.42714643e-01, 4.22587961e-01,
          3.96485627e-01, 1.89197853e-01, 0., 0., 2.97421604e-01,
          4.22587961e-01, 4.22587961e-01, 4.22587961e-01, 3.97690684e-02,
          0., 0., 0., 0., 4.23540473e-01, 6.32169425e-01, 6.32169425e-01,
          1.15947142e-01, 0., 0., 0., 0., 0., 0., 0., 0., 0.,
          5.46307862e-01, 5.46307862e-01, 5.46307862e-01, 0., 0.,
          3.68220992e-02, 3.02160949e-01, 7.84104317e-02, 1.95533726e-02,
          4.49792385e-01, 1.34695783e-01, 1.53526217e-01, 0., 0.,
          2.64236420e-01, 4.76582497e-01, 4.76582497e-01, 4.76582497e-01,
          6.88170195e-01, 0., 0., 0., 0., 2.07849853e-02, 2.00194821e-01,
          7.39175007e-02, 6.88170195e-01, 5.00281096e-01, 0., 0., 0., 0.,
          0., 4.94125217e-01, 5.00281096e-01, 5.00281096e-01,
          1.09523378e-01, 6.98258936e-01, 6.98258936e-01, 0., 0.,
          4.70097736e-03, 6.42927364e-02, 2.06784345e-02, 3.63320261e-02,
          5.65491915e-01, 1.45476861e-02, 1.18545778e-02, 0., 0.,
          4.40577641e-02, 5.10770082e-01, 3.02674055e-01, 5.65491915e-01,
          7.04550922e-01, 0., 0., 0., 0., 0., 6.77022571e-03,
          1.17012737e-02, 7.04550922e-01, 4.37009215e-01, 0., 0., 0., 0.,
          0., 5.17639935e-01, 5.17639935e-01, 5.17639935e-01, 0.,
          3.56953859e-01, 5.42764366e-01, 5.27235746e-01, 5.42764366e-01,
          0., 0., 0., 0., 0., 0., 0., 0., 9.95024860e-01, 0., 0., 0., 0.,
          0., 0., 0., 0., 9.95024860e-01, 0., 0., 0., 0., 0., 0., 0., 0.,
          5.07315576e-01, 5.07315576e-01, 5.07315576e-01, 4.72044587e-01,
          0. ]
      - [ 5.31412125e-01, 5.31412125e-01, 5.31412125e-01, 0.,
          4.67791595e-02, 9.53698084e-02, 7.21566239e-03, 0.,
          3.68999600e-01, 4.88508284e-01, 4.88508284e-01, 2.03657094e-02,
          0., 4.88508284e-01, 1.99409544e-01, 1.95078105e-02, 0.,
          4.88508284e-01, 4.86195236e-01, 0., 3.14284302e-02,
          2.20479950e-01, 4.86195236e-01, 1.24514732e-03, 0.,
          4.86195236e-01, 4.86195236e-01, 1.51052535e-01, 0.,
          8.41955934e-03, 5.90657555e-02, 2.77121142e-02, 0.,
          3.93592328e-01, 6.37016714e-01, 6.37016714e-01, 3.18983227e-01,
          4.49221045e-01, 4.49221045e-01, 0., 4.83143069e-02,
          4.49221045e-01, 4.49221045e-01, 2.88910657e-01, 2.75801998e-02,
          2.72561926e-02, 3.96872088e-02, 4.10332084e-02, 0.,
          5.57362974e-01, 5.57362974e-01, 5.57362974e-01, 2.37437829e-01,
          4.57763933e-02, 3.78003977e-02, 3.46657425e-01, 5.38087308e-01,
          5.38087308e-01, 5.38087308e-01, 6.25822740e-03, 0.,
          4.99310046e-02, 4.33591940e-02, 1.23670157e-02, 2.56926149e-01,
          4.66372937e-01, 4.66372937e-01, 1.77092608e-02, 0.,
          4.66372937e-01, 4.66372937e-01, 2.42588654e-01, 3.63614745e-02,
          4.18762624e-01, 4.31612790e-01, 4.31612790e-01, 7.29578140e-04,
          1.94748472e-02, 4.31612790e-01, 4.31612790e-01, 2.71046340e-01,
          5.36267757e-01, 6.04146253e-03, 2.80730054e-02, 6.97925836e-02,
          4.35178680e-03, 3.03024184e-02, 3.53924125e-01, 5.36267757e-01,
          5.36267757e-01, 5.54156125e-01, 5.54156125e-01, 2.41769761e-01,
          9.70029682e-02, 4.82985340e-02, 3.01273856e-02, 4.46497202e-02,
          1.01470547e-02, 5.54156125e-01, 1.35363117e-01, 4.77856487e-01,
          2.40983278e-01, 5.57804145e-02, 4.22418118e-02, 4.77856487e-01,
          4.77856487e-01, 4.77856487e-01, 2.34059691e-02, 1.54220648e-02,
          4.06451486e-02, 6.25643671e-01, 6.25643671e-01, 4.54898655e-01,
          0., 0., 3.05189136e-02, 3.37520838e-02, 2.47818619e-01,
          1.66207168e-03, 1.02310114e-01, 6.48618817e-01, 6.48618817e-01,
          0., 0., 5.12110405e-02, 2.78576583e-01, 2.64711410e-01,
          5.18729575e-02, 3.53298616e-03, 0., 6.49944246e-01,
          6.49944246e-01, 1.69293836e-01, 1.06208604e-02, 2.17042401e-01,
          2.35642996e-02, 1.72043256e-02, 5.95185207e-03, 0.,
          5.51169634e-01, 5.51169634e-01, 5.51169634e-01, 2.86515087e-01,
          1.24294553e-02 ]
      - [ 4.71920252e-01, 4.71920252e-01, 4.71920252e-01, 0.,
          3.06487471e-01, 4.52621877e-01, 1.58466965e-01, 1.03133591e-02,
          5.60447089e-02, 4.19133097e-01, 4.19133097e-01, 2.04007268e-01,
          1.66508034e-01, 4.19133097e-01, 1.88969240e-01, 1.11341424e-01,
          4.19133097e-01, 4.19133097e-01, 8.24655667e-02, 7.29177073e-02,
          2.32997492e-01, 9.99284834e-02, 2.13705480e-01, 0.,
          5.39306045e-01, 5.39306045e-01, 5.39306045e-01, 0., 0., 0., 0.,
          0., 0., 7.04615593e-01, 7.04615593e-01, 0., 4.34808969e-01,
          4.35044765e-01, 4.35044765e-01, 0., 9.90757644e-02,
          4.35044765e-01, 4.35044765e-01, 1.99308023e-01, 0.,
          1.20830163e-01, 4.16007966e-01, 4.16007966e-01, 2.57656872e-01,
          4.16007966e-01, 4.16007966e-01, 4.16007966e-01, 2.20596775e-01,
          2.96845548e-02, 7.51625150e-02, 3.61165196e-01, 4.84679610e-01,
          6.74865246e-02, 5.17122298e-02, 3.70625615e-01, 4.84679610e-01,
          4.84679610e-01, 9.86636952e-02, 4.48198140e-01, 4.38174516e-01,
          0., 0., 0., 0., 4.48198140e-01, 4.48198140e-01, 4.48198140e-01,
          2.44618878e-01, 3.89607251e-01, 3.89607251e-01, 3.89607251e-01,
          5.29561713e-02, 1.50672525e-01, 3.89607251e-01, 3.89607251e-01,
          3.89607251e-01, 4.15550917e-01, 4.15550917e-01, 4.15550917e-01,
          0., 2.56315738e-01, 2.29429930e-01, 3.64154816e-01,
          3.09290081e-01, 3.62210155e-01, 3.72153640e-01, 3.72153640e-01,
          1.63687810e-01, 0., 3.72153640e-01, 3.72153640e-01,
          3.72153640e-01, 3.72153640e-01, 3.72153640e-01, 3.77251565e-01,
          3.77251565e-01, 0., 0., 3.77251565e-01, 3.77251565e-01,
          3.77251565e-01, 3.77251565e-01, 3.77251565e-01, 2.14293733e-01,
          4.26818520e-01, 4.26818520e-01, 3.26833457e-01, 4.26818520e-01,
          4.26818520e-01, 9.59481299e-02, 2.08148628e-01, 2.48528481e-01,
          3.70566428e-01, 2.46103838e-01, 4.83628847e-02, 1.91304821e-03,
          5.95734715e-01, 5.95734715e-01, 1.18376635e-01, 4.72557880e-02,
          2.60339230e-01, 2.58780330e-01, 9.47858989e-02, 6.92471210e-03,
          0., 6.45833433e-01, 6.45833433e-01, 1.54440805e-01,
          5.81236556e-02, 2.36898050e-01, 1.10475279e-01, 8.85281712e-02,
          0., 0., 6.16909504e-01, 6.16909504e-01, 4.23582613e-01,
          1.73025265e-01, 5.73043004e-02 ]
      - [ 4.46452379e-01, 4.46452379e-01, 3.31086993e-01, 1.30536348e-01,
          2.54437685e-01, 3.94891739e-01, 1.69635922e-01, 1.46521613e-01,
          4.46452379e-01, 4.19098288e-01, 4.19098288e-01, 3.62245411e-01,
          2.24631011e-01, 1.98925093e-01, 1.65190145e-01, 2.11423978e-01,
          4.19098288e-01, 4.19098288e-01, 3.91089261e-01, 3.91089261e-01,
          2.87892461e-01, 1.46984875e-01, 3.91089261e-01, 3.91089261e-01,
          1.40861616e-01, 3.27124447e-01, 3.91089261e-01, 1.73310280e-01,
          3.31488289e-02, 7.61406273e-02, 4.55695242e-01, 3.56977314e-01,
          2.12180540e-02, 4.55695242e-01, 4.55695242e-01, 4.55695242e-01,
          1.96869850e-01, 4.52534407e-01, 4.52534407e-01, 3.03136438e-01,
          8.34131837e-02, 4.52534407e-01, 4.52534407e-01, 1.95102364e-01,
          2.56542563e-02, 2.72606075e-01, 3.62981945e-01, 3.62981945e-01,
          3.62981945e-01, 5.41768819e-02, 3.62981945e-01, 3.62981945e-01,
          3.62981945e-01, 3.58593017e-01, 1.95971370e-01, 3.50064814e-01,
          3.21004540e-01, 3.03800821e-01, 3.95037025e-01, 3.95037025e-01,
          3.95037025e-01, 3.95037025e-01, 1.24690026e-01, 0.,
          3.05782825e-01, 4.57690209e-01, 4.57690209e-01, 1.87909216e-01,
          3.04246861e-02, 4.57690209e-01, 4.57690209e-01, 1.66638851e-01,
          3.72486621e-01, 3.72486621e-01, 3.72486621e-01, 3.72486621e-01,
          7.84979202e-03, 1.58091798e-01, 3.72486621e-01, 3.72486621e-01,
          3.72486621e-01, 3.49202842e-01, 3.49202842e-01, 3.49202842e-01,
          3.49202842e-01, 3.09304178e-01, 3.13556939e-01, 3.49202842e-01,
          3.49202842e-01, 2.66210735e-01, 3.45685124e-01, 3.71503681e-01,
          3.51127088e-01, 4.00163025e-01, 3.51500884e-02, 1.09937534e-01,
          3.48548144e-01, 4.00163025e-01, 4.00163025e-01, 4.05946404e-01,
          4.05946404e-01, 4.05946404e-01, 0., 0., 4.05946404e-01,
          4.05946404e-01, 4.05946404e-01, 8.47924724e-02, 2.14716107e-01,
          1.11473158e-01, 4.52046067e-01, 4.52046067e-01, 4.52046067e-01,
          4.52046067e-01, 1.26951233e-01, 1.72702610e-01, 2.71348625e-01,
          1.37704045e-01, 1.08567193e-01, 4.27439839e-01, 4.27439839e-01,
          4.27439839e-01, 4.27439839e-01, 4.27439839e-01, 2.02016219e-01,
          1.03180759e-01, 3.64257783e-01, 8.66341069e-02, 3.11351717e-01,
          4.14623171e-01, 4.14623171e-01, 3.80881876e-01, 7.43859112e-02,
          3.03953439e-01, 4.14623171e-01, 3.56140047e-01, 2.53571063e-01,
          9.68637019e-02, 5.36250062e-02, 4.71813291e-01, 5.13592243e-01,
          5.13592243e-01, 1.29153028e-01, 1.56958818e-01 ]
      - [ 3.51213962e-01, 4.17726189e-01, 4.17726189e-01, 0., 0., 0.,
          4.17726189e-01, 4.17726189e-01, 4.17726189e-01, 9.68837440e-02,
          0., 0., 0., 0., 0., 6.44843340e-01, 6.44843340e-01,
          3.90550613e-01, 5.75688422e-01, 5.75688422e-01, 0., 0., 0., 0.,
          0., 0., 5.75688422e-01, 4.46215838e-01, 4.46215838e-01, 0., 0.,
          0., 0., 4.46215838e-01, 4.46215838e-01, 4.46215838e-01,
          1.41515844e-02, 4.97240275e-01, 4.97240275e-01, 0., 0.,
          7.64336288e-02, 4.97240275e-01, 4.97240275e-01, 0.,
          4.54748452e-01, 4.54748452e-01, 1.69758424e-01, 0.,
          2.85951588e-02, 3.81461829e-02, 4.54748452e-01, 3.78631741e-01,
          4.47902471e-01, 4.06300604e-01, 4.06300604e-01, 4.06300604e-01,
          0., 3.81692201e-01, 4.06300604e-01, 1.57581702e-01,
          4.40353062e-03, 4.06300604e-01, 3.84511620e-01, 3.84511620e-01,
          1.91737302e-02, 0., 3.84511620e-01, 3.84511620e-01,
          3.84511620e-01, 3.84511620e-01, 3.29690456e-01, 3.96294534e-01,
          3.96294534e-01, 3.96294534e-01, 0., 3.93096060e-02,
          3.96294534e-01, 3.96294534e-01, 2.42297947e-01, 3.87995720e-01,
          4.65433985e-01, 4.65433985e-01, 4.34480980e-03, 0.,
          4.65433985e-01, 4.65433985e-01, 3.07032257e-01, 5.75593188e-02,
          1.76734671e-01, 4.21610892e-01, 2.86640108e-01, 1.03696615e-01,
          0., 4.96892899e-01, 4.96892899e-01, 4.53118473e-01,
          4.70705680e-04, 1.58884555e-01, 2.71610338e-02, 2.19902601e-02,
          2.99132895e-02, 0., 5.74644089e-01, 5.74644089e-01,
          5.74644089e-01, 3.31725106e-02, 1.99421924e-02, 3.07031304e-01,
          3.69398266e-01, 3.91618222e-01, 3.91618222e-01, 3.91618222e-01,
          3.91618222e-01, 3.14837843e-01, 4.83449139e-02, 2.24599764e-01,
          2.34728292e-01, 1.22749306e-01, 0., 0., 5.54084718e-01,
          5.54084718e-01, 5.54084718e-01, 3.19070853e-02, 4.74805869e-02,
          8.28633644e-03, 0., 0., 0., 6.77452564e-01, 6.77452564e-01,
          2.74214208e-01, 4.71224077e-03, 8.28633644e-03, 0., 0., 0., 0.,
          9.95024860e-01, 0., 0., 0., 0. ]
      - [ 5.50915897e-01, 5.50915897e-01, 2.87502199e-01, 0., 0.,
          2.70739105e-02, 2.41427291e-02, 0., 5.50915897e-01,
          6.05695426e-01, 6.05695426e-01, 2.45582629e-02, 0.,
          2.72530824e-01, 1.66521281e-01, 1.41079471e-01, 0.,
          3.71092260e-01, 4.20680434e-01, 4.20680434e-01, 9.07634869e-02,
          1.30264476e-01, 4.20680434e-01, 3.38491976e-01, 1.80739954e-01,
          3.39792550e-01, 4.20680434e-01, 1.66835532e-01, 8.08920152e-03,
          2.14847401e-01, 2.96113878e-01, 3.81407350e-01, 6.44525606e-03,
          4.66299921e-01, 4.85007674e-01, 4.85007674e-01, 4.71072495e-01,
          4.71072495e-01, 4.71072495e-01, 7.60727674e-02, 1.78984210e-01,
          4.71072495e-01, 2.08769664e-01, 1.42374611e-03, 1.62013739e-01,
          3.89508337e-01, 3.89508337e-01, 3.89508337e-01, 2.21038029e-01,
          3.89508337e-01, 3.89508337e-01, 3.89508337e-01, 1.54437035e-01,
          1.14453606e-01, 8.50580037e-02, 1.68371290e-01, 4.28752035e-01,
          4.27278936e-01, 4.28752035e-01, 4.28752035e-01, 4.28752035e-01,
          2.04202175e-01, 2.35429071e-02, 0., 2.03658685e-01,
          4.75263417e-01, 4.75263417e-01, 1.87968045e-01, 8.21268000e-03,
          4.75263417e-01, 4.75263417e-01, 1.21964417e-01, 2.80983031e-01,
          4.33358341e-01, 4.33358341e-01, 1.78345829e-01, 4.33358341e-01,
          4.33358341e-01, 3.65660965e-01, 2.59241834e-03, 0.,
          1.18909359e-01, 3.88911337e-01, 4.29751843e-01, 4.29751843e-01,
          2.76344474e-02, 2.56835788e-01, 4.29751843e-01, 4.25992310e-01,
          1.67505294e-01, 4.09169406e-01, 4.09169406e-01, 3.07238102e-01,
          2.46948242e-01, 1.85394734e-02, 5.56083508e-02, 4.09169406e-01,
          4.09169406e-01, 4.09169406e-01, 4.16050762e-01, 4.16050762e-01,
          4.16050762e-01, 2.25380566e-02, 1.68154680e-03, 4.16050762e-01,
          4.16050762e-01, 3.57737154e-01, 4.31963615e-02, 0.,
          1.29947722e-01, 3.89843166e-01, 0., 9.06691551e-01, 0., 0., 0.,
          0., 1.30068675e-01, 2.13626355e-01, 5.38917243e-01,
          5.38917243e-01, 5.10997355e-01, 0., 5.44896498e-02,
          1.41034395e-01, 2.59272844e-01, 4.30782050e-01, 1.56035170e-01,
          1.60074979e-01, 4.30782050e-01, 4.30782050e-01, 4.00912970e-01,
          7.33812973e-02, 1.93176508e-01, 4.30782050e-01, 3.52644384e-01,
          2.79517084e-01, 0., 0., 5.08905113e-01, 5.08905113e-01,
          5.08905113e-01, 9.86322686e-02, 7.58155659e-02 ]
      - [ 5.15740752e-01, 5.15740752e-01, 3.21647763e-01, 2.76254509e-02,
          3.67431551e-01, 1.71549082e-01, 1.10386349e-01, 2.86442805e-02,
          4.25688952e-01, 4.51067775e-01, 2.43632600e-01, 1.24771623e-02,
          8.75310749e-02, 4.51067775e-01, 4.51067775e-01, 2.54550040e-01,
          2.22880855e-01, 4.51067775e-01, 3.52725714e-01, 3.52725714e-01,
          3.52725714e-01, 3.52725714e-01, 3.39442864e-02, 3.52725714e-01,
          3.52725714e-01, 3.52725714e-01, 3.52725714e-01, 2.68315375e-01,
          2.34143451e-01, 4.16897833e-01, 4.16897833e-01, 0., 0.,
          4.16897833e-01, 4.16897833e-01, 4.16897833e-01, 2.68470585e-01,
          4.20197010e-01, 4.20197010e-01, 7.19497502e-02, 3.47740799e-01,
          4.20197010e-01, 4.20197010e-01, 2.96366513e-01, 5.94172180e-02,
          2.35921368e-01, 3.86034578e-01, 3.86034578e-01, 3.08751702e-01,
          3.53418767e-01, 3.86034578e-01, 3.86034578e-01, 3.50028604e-01,
          4.05138992e-02, 4.35945578e-02, 2.18107477e-01, 4.38334912e-01,
          4.29343194e-01, 1.65282115e-02, 4.29187298e-01, 4.38334912e-01,
          4.38334912e-01, 3.04484461e-02, 0., 3.14663976e-01,
          4.71540123e-01, 4.71540123e-01, 0., 0., 4.71540123e-01,
          4.71540123e-01, 8.29245523e-02, 0., 4.45510805e-01,
          4.56277937e-01, 0., 9.12284777e-02, 4.56277937e-01,
          4.56277937e-01, 4.05057251e-01, 0., 6.63299263e-02,
          4.34387147e-01, 4.39361066e-01, 4.39361066e-01, 6.57680910e-03,
          4.76732552e-02, 4.39361066e-01, 4.39361066e-01, 1.67484522e-01,
          4.13124800e-01, 4.13124800e-01, 2.78855562e-01, 2.44676009e-01,
          6.36490658e-02, 2.88876649e-02, 4.13124800e-01, 4.13124800e-01,
          4.13124800e-01, 4.12005812e-01, 4.12005812e-01, 4.12005812e-01,
          0., 4.86010164e-02, 4.12005812e-01, 4.12005812e-01,
          3.62085342e-01, 1.16929382e-01, 0., 2.48296469e-01,
          4.89190161e-01, 0., 4.89190161e-01, 0., 4.89190161e-01,
          4.64264840e-01, 0., 1.28447622e-01, 2.05933318e-01,
          5.53094327e-01, 5.53094327e-01, 4.47275370e-01, 0.,
          1.64002091e-01, 1.52959108e-01, 2.70913929e-01, 4.32357937e-01,
          8.82549956e-02, 1.62415996e-01, 4.32357937e-01, 4.32357937e-01,
          4.32357937e-01, 1.40858412e-01, 8.36966038e-02, 4.32357937e-01,
          3.61532986e-01, 2.48743042e-01, 0., 0., 5.06622612e-01,
          5.06622612e-01, 5.06622612e-01, 1.14682533e-01, 1.38598979e-01 ]
      - [ 4.98753130e-01, 4.98753130e-01, 4.98753130e-01, 0., 0., 0., 0.,
          0., 4.98753130e-01, 5.16556799e-01, 5.16556799e-01,
          4.97587144e-01, 0., 9.90155968e-04, 3.20463717e-01,
          3.72918025e-02, 2.20444631e-02, 3.30169201e-01, 3.80767554e-01,
          3.80767554e-01, 2.87518352e-01, 0., 3.80767554e-01,
          3.13191026e-01, 3.80767554e-01, 3.00867110e-01, 3.80767554e-01,
          2.58641332e-01, 1.15722008e-01, 1.97594203e-02, 0.,
          1.63603216e-01, 0., 5.81144691e-01, 5.81144691e-01,
          4.59668845e-01, 5.40573895e-01, 5.40573895e-01, 2.51770437e-01,
          0., 1.56353891e-01, 1.21813372e-01, 1.11041389e-01,
          5.41994199e-02, 5.40573895e-01, 4.70705420e-01, 4.70705420e-01,
          3.68596137e-01, 0., 8.07093084e-02, 4.70705420e-01,
          3.35843503e-01, 1.07327729e-01, 2.52824783e-01, 2.91637063e-01,
          4.25756752e-01, 4.25756752e-01, 0., 3.42358053e-01,
          4.25756752e-01, 4.25756752e-01, 2.54743755e-01, 5.92972562e-02,
          2.24920660e-01, 1.33810967e-01, 3.27567935e-01, 0.,
          1.07876994e-01, 0., 6.18377090e-01, 6.18377090e-01,
          2.03991503e-01, 3.97305131e-01, 3.97305131e-01, 3.97305131e-01,
          3.97305131e-01, 3.97305131e-01, 3.97305131e-01, 1.78774521e-01,
          7.25656301e-02, 1.08150892e-01, 3.65786403e-01, 3.65786403e-01,
          3.14332038e-01, 2.17792436e-01, 3.65786403e-01, 3.65786403e-01,
          2.17506632e-01, 3.65786403e-01, 3.65786403e-01, 3.86055022e-01,
          3.86055022e-01, 3.65845740e-01, 1.08273827e-01, 3.86055022e-01,
          1.66421443e-01, 3.61801326e-01, 3.09558868e-01, 3.86055022e-01,
          4.07886267e-01, 6.33987710e-02, 4.30907607e-02, 1.00554293e-02,
          4.07886267e-01, 3.97607803e-01, 4.07886267e-01, 4.07886267e-01,
          4.07886267e-01, 7.43529852e-03, 2.95704395e-01, 4.75054353e-01,
          4.75054353e-01, 4.75054353e-01, 4.75054353e-01, 7.10781589e-02,
          0., 0., 1.46175817e-01, 1.43798187e-01, 2.20674887e-01,
          6.55981421e-01, 6.55981421e-01, 3.00078839e-02, 4.27747983e-03,
          1.03390925e-01, 1.74575791e-01, 1.63167238e-01, 1.79503530e-01,
          5.06760716e-01, 2.25721106e-01, 5.06760716e-01, 5.06760716e-01,
          3.13430101e-01, 8.90998691e-02, 9.24516171e-02, 8.44892338e-02,
          1.48365516e-02, 1.46904081e-01, 2.05763597e-02, 4.98801529e-01,
          4.98801529e-01, 4.98801529e-01, 4.52921748e-01, 1.18778907e-01 ]
      - [ 3.78306806e-01, 3.78306806e-01, 3.78306806e-01, 0., 0.,
          3.70842904e-01, 3.78306806e-01, 3.78306806e-01, 3.78306806e-01,
          4.15467799e-01, 1.88125432e-01, 3.91005099e-01, 0., 0.,
          3.42227221e-01, 4.15467799e-01, 4.15467799e-01, 4.15467799e-01,
          4.18300390e-01, 4.54716891e-01, 4.54716891e-01, 4.54716891e-01,
          0., 0., 1.50614485e-01, 5.02048247e-02, 4.18300390e-01,
          3.17607909e-01, 2.44024605e-01, 4.08777088e-01, 4.08777088e-01,
          0., 0., 4.08777088e-01, 4.08777088e-01, 4.08777088e-01,
          1.63472652e-01, 4.74734157e-01, 4.74734157e-01, 0., 0.,
          4.74734157e-01, 4.74734157e-01, 2.55612463e-01, 4.13173437e-02,
          4.20305341e-01, 4.20305341e-01, 4.20305341e-01, 0., 0.,
          1.92807779e-01, 4.20305341e-01, 3.85411412e-01, 3.21649134e-01,
          2.87723929e-01, 4.35212284e-01, 4.52480137e-01, 2.44224399e-01,
          0., 0., 4.52480137e-01, 4.52480137e-01, 2.22317785e-01, 0.,
          4.46000904e-01, 4.46000904e-01, 4.46000904e-01, 0., 0.,
          4.46000904e-01, 4.46000904e-01, 3.09976973e-02, 2.55902290e-01,
          3.90460849e-01, 3.90460849e-01, 3.90460849e-01, 8.52959678e-02,
          9.26274136e-02, 3.90460849e-01, 3.90460849e-01, 3.90460849e-01,
          3.75539809e-01, 3.75539809e-01, 3.75539809e-01, 1.87151760e-01,
          3.75539809e-01, 2.38571614e-01, 3.75539809e-01, 3.75539809e-01,
          2.41091400e-01, 4.11458969e-01, 4.11458969e-01, 3.15257490e-01,
          1.49634749e-01, 1.59365162e-01, 4.71400544e-02, 4.11458969e-01,
          4.11458969e-01, 4.11458969e-01, 4.12289917e-01, 4.12289917e-01,
          4.12289917e-01, 0., 4.85496446e-02, 4.12289917e-01,
          4.12289917e-01, 3.61143023e-01, 1.14826240e-01, 2.31328219e-01,
          1.63390562e-01, 4.88103837e-01, 4.88103837e-01, 4.88103837e-01,
          1.93562716e-01, 8.20309743e-02, 2.81540155e-01, 2.76982546e-01,
          2.03831047e-01, 2.07070068e-01, 4.05017704e-01, 4.05017704e-01,
          4.05017704e-01, 4.05017704e-01, 4.05017704e-01, 2.39511147e-01,
          1.84299648e-01, 4.09648240e-01, 1.37280047e-01, 2.57543325e-01,
          4.09648240e-01, 4.09648240e-01, 4.09648240e-01, 1.43508136e-01,
          2.26010099e-01, 4.09648240e-01, 3.49121392e-01, 2.67202526e-01,
          0., 2.69563333e-03, 5.06320357e-01, 5.06320357e-01,
          5.06320357e-01, 1.12975992e-01, 1.40742615e-01 ]
      - [ 4.10485119e-01, 4.10485119e-01, 2.63080090e-01, 0., 0.,
          3.95458907e-01, 4.10485119e-01, 3.10335755e-01, 4.10485119e-01,
          4.17752266e-01, 3.64146173e-01, 6.50316700e-02, 0., 0.,
          4.01157588e-01, 4.17752266e-01, 4.17752266e-01, 4.17752266e-01,
          5.50499558e-01, 5.50499558e-01, 5.50499558e-01, 9.48341656e-03,
          1.80893749e-01, 1.85788989e-01, 1.32498816e-01, 0.,
          2.16190461e-02, 4.06017601e-01, 4.06017601e-01, 1.47246391e-01,
          1.97360497e-02, 3.76460105e-01, 8.88775364e-02, 4.06017601e-01,
          4.06017601e-01, 4.06017601e-01, 3.49784046e-01, 4.37943608e-01,
          4.37943608e-01, 0., 0., 4.37943608e-01, 4.37943608e-01,
          3.25381666e-01, 1.49899283e-02, 4.49460030e-01, 4.49460030e-01,
          3.23801577e-01, 0., 0., 4.49460030e-01, 4.49460030e-01,
          2.87089378e-01, 1.36171021e-02, 4.48190987e-01, 4.48190987e-01,
          4.33219641e-01, 1.50368968e-02, 4.37959135e-02, 4.48190987e-01,
          4.48190987e-01, 4.68934551e-02, 0., 1.06048375e-01,
          4.20407206e-01, 4.20407206e-01, 1.03121512e-01, 3.00348014e-01,
          4.20407206e-01, 4.20407206e-01, 4.20407206e-01, 0.,
          2.80579984e-01, 3.83792251e-01, 3.83792251e-01, 3.83792251e-01,
          7.28162527e-02, 1.68403506e-01, 3.83792251e-01, 3.83792251e-01,
          3.83792251e-01, 4.30195570e-01, 4.30195570e-01, 3.60690236e-01,
          7.43620796e-03, 6.40825555e-02, 4.30195570e-01, 4.30195570e-01,
          1.60230368e-01, 3.09025079e-01, 2.54297256e-01, 4.95001793e-01,
          4.05218393e-01, 0., 0., 4.95001793e-01, 4.95001793e-01,
          1.76316142e-01, 4.40132758e-03, 0., 4.95349228e-01,
          4.95349228e-01, 0., 0., 1.16487399e-01, 4.95349228e-01,
          4.95349228e-01, 0., 2.44652912e-01, 1.31656811e-01,
          4.94446576e-01, 4.94446576e-01, 4.94446576e-01, 1.64583609e-01,
          2.75666434e-02, 2.76795954e-01, 2.82802373e-01, 3.85283798e-01,
          1.88534960e-01, 4.91349287e-02, 1.99570552e-01, 4.99950618e-01,
          4.99950618e-01, 4.82021481e-01, 4.23255526e-02, 1.86380729e-01,
          5.54263070e-02, 4.04771000e-01, 5.15401304e-01, 0.,
          1.72307968e-01, 5.15401304e-01, 5.15401304e-01, 3.56669798e-02,
          7.96671677e-03, 0., 4.51040477e-01, 4.61572707e-01, 0.,
          4.61572707e-01, 0., 4.61572707e-01, 3.90901744e-01, 0. ]
      - [ 3.56243730e-01, 4.31480408e-01, 4.31480408e-01, 0., 0.,
          1.73516378e-01, 4.31480408e-01, 3.17691267e-01, 4.23342139e-01,
          1.80002272e-01, 2.71929741e-01, 1.35242656e-01, 0., 0.,
          1.96867421e-01, 5.68402290e-01, 5.68402290e-01, 4.29846168e-01,
          0., 0., 0., 0., 0., 0., 0., 0., 0., 0., 0., 0., 0., 0., 0., 0.,
          0., 0., 1.63063258e-01, 4.62257206e-01, 4.62257206e-01, 0., 0.,
          4.62257206e-01, 4.62257206e-01, 3.37736934e-01, 0., 0.,
          6.35320097e-02, 1.45937487e-01, 0., 0., 5.68328142e-01,
          5.68328142e-01, 5.68328142e-01, 0., 0., 0., 0., 0., 0., 0., 0.,
          0., 0., 0., 0., 0., 0., 0., 0., 0., 0., 0., 1.70472443e-01,
          4.39662069e-01, 4.39662069e-01, 0., 0., 5.80332568e-03,
          4.39662069e-01, 4.39662069e-01, 4.39662069e-01, 6.33435786e-01,
          0., 0., 0., 0., 3.09763034e-03, 2.41917148e-01, 3.64225745e-01,
          6.33435786e-01, 7.04615593e-01, 0., 0., 0., 0., 0., 0., 0.,
          7.04615593e-01, 4.98753130e-01, 0., 0., 0., 0., 0.,
          4.98753130e-01, 4.98753130e-01, 4.98753130e-01, 6.19987138e-02,
          3.50517720e-01, 5.34215152e-01, 5.17729223e-01, 5.34215152e-01,
          0., 2.96373032e-02, 4.09461483e-02, 1.63059309e-01,
          4.12534744e-01, 0., 0., 0., 7.71319866e-01, 0., 2.64781294e-03,
          1.30383568e-02, 4.76450890e-01, 4.56235409e-01, 0., 0., 0.,
          7.59027421e-01, 0., 0., 0., 4.56235409e-01, 1.91498056e-01, 0.,
          0., 0., 4.70064729e-01, 4.70064729e-01, 4.70064729e-01,
          4.70064729e-01, 2.73477495e-01 ]
      - [ 4.57928091e-01, 4.57928091e-01, 4.57928091e-01, 0.,
          1.66024968e-01, 3.56566757e-01, 4.39240299e-02, 0.,
          4.57928091e-01, 4.64260906e-01, 4.64260906e-01, 5.01232184e-02,
          0., 4.64260906e-01, 3.58150393e-01, 4.55959663e-02,
          1.86266061e-02, 4.64260906e-01, 4.74328965e-01, 9.59610641e-02,
          3.91720161e-02, 2.88679510e-01, 4.74328965e-01, 0.,
          3.50964591e-02, 4.74328965e-01, 4.74328965e-01, 2.52235860e-01,
          0., 5.93931787e-02, 4.44653392e-01, 3.18690419e-01, 0.,
          3.39714110e-01, 5.06510079e-01, 5.06510079e-01, 3.02973509e-01,
          4.71612126e-01, 4.71612126e-01, 0., 1.09536827e-01,
          4.71612126e-01, 4.29430276e-01, 1.92798212e-01, 5.16018420e-02,
          1.34680972e-01, 1.06313564e-01, 5.16469367e-02, 0.,
          6.38287723e-01, 6.38287723e-01, 3.62927824e-01, 4.47380170e-02,
          1.13921002e-01, 8.01749080e-02, 9.53373685e-02, 5.07031083e-01,
          5.91111600e-01, 5.91111600e-01, 0., 2.92336177e-02,
          1.02991238e-01, 1.05888210e-01, 5.52156270e-02, 2.24971101e-01,
          4.28598940e-01, 4.28598940e-01, 3.08390617e-01, 0.,
          4.28598940e-01, 4.28598940e-01, 3.34910274e-01, 4.16962169e-02,
          3.09692234e-01, 4.56485480e-01, 4.56485480e-01, 3.37324850e-02,
          1.72941431e-01, 1.82290837e-01, 4.56485480e-01, 4.56485480e-01,
          5.64106643e-01, 1.42057044e-02, 5.84875681e-02, 1.11336067e-01,
          1.25484630e-01, 4.13169824e-02, 7.90324509e-02, 5.64106643e-01,
          5.64106643e-01, 5.48910499e-01, 5.48910499e-01, 1.39307097e-01,
          2.03819224e-03, 1.34373322e-01, 2.16734767e-01, 7.70262331e-02,
          1.53772403e-02, 5.48910499e-01, 4.55812752e-01, 4.55812752e-01,
          2.72510409e-01, 4.90312977e-03, 1.65626872e-02, 4.55812752e-01,
          4.55812752e-01, 2.98857749e-01, 2.25801319e-02, 4.68993038e-02,
          1.22307487e-01, 5.15812993e-01, 5.15812993e-01, 5.15812993e-01,
          0., 2.79673319e-02, 2.74852276e-01, 3.21208566e-01,
          4.93631512e-01, 1.99426687e-03, 9.38532948e-02, 4.93631512e-01,
          4.93631512e-01, 6.89807311e-02, 5.46775805e-03, 8.23452100e-02,
          4.93631512e-01, 4.88494396e-01, 1.47902071e-01, 2.12690644e-02,
          2.95260046e-02, 4.88494396e-01, 4.88494396e-01, 1.31942481e-01,
          2.44646473e-03, 4.88494396e-01, 2.35551447e-01, 2.43416950e-01,
          4.95539308e-02, 0., 5.39543748e-01, 5.39543748e-01,
          5.39543748e-01, 5.39052747e-02, 3.45227048e-02 ]
      - [ 3.95601720e-01, 3.95601720e-01, 3.95601720e-01, 7.52448365e-02,
          1.99346095e-01, 2.16290653e-01, 3.82639378e-01, 3.62560034e-01,
          3.95601720e-01, 2.98403829e-01, 1.20938666e-01, 2.08422914e-01,
          1.38243198e-01, 1.37227684e-01, 2.21507072e-01, 5.03604114e-01,
          5.03604114e-01, 5.03604114e-01, 4.76344734e-01, 4.76344734e-01,
          2.59303004e-01, 0., 0., 0., 1.48048118e-01, 4.74734753e-01,
          4.76344734e-01, 4.97182369e-01, 7.90193826e-02, 5.38410945e-03,
          0., 0., 0., 4.97182369e-01, 4.97182369e-01, 4.97182369e-01,
          1.46165565e-01, 4.62927252e-01, 4.62927252e-01, 2.76353955e-01,
          1.28026009e-01, 4.62927252e-01, 4.62927252e-01, 1.53927192e-01,
          1.86916590e-02, 3.72505277e-01, 3.72505277e-01, 3.72505277e-01,
          3.72505277e-01, 6.27854317e-02, 1.44966096e-01, 3.72505277e-01,
          3.72505277e-01, 3.72505277e-01, 3.63037437e-01, 3.63037437e-01,
          3.63037437e-01, 7.98702762e-02, 2.59654403e-01, 3.63037437e-01,
          3.63037437e-01, 3.63037437e-01, 3.63037437e-01, 1.65620610e-01,
          3.27062994e-01, 3.94170761e-01, 1.11529753e-01, 2.29325131e-01,
          2.47972548e-01, 4.39439148e-01, 4.39439148e-01, 4.39439148e-01,
          4.13527489e-01, 4.13527489e-01, 4.13527489e-01, 3.21459472e-02,
          3.89390811e-02, 1.61507681e-01, 4.13527489e-01, 4.13527489e-01,
          3.34977180e-01, 3.99641484e-01, 3.99641484e-01, 3.99641484e-01,
          3.26827735e-01, 3.99641484e-01, 3.97688299e-01, 2.48472363e-01,
          1.23633869e-01, 1.23117991e-01, 3.11601400e-01, 3.10204655e-01,
          3.66483301e-01, 2.42221504e-01, 2.69805342e-01, 3.66483301e-01,
          3.66483301e-01, 3.66483301e-01, 3.66483301e-01, 1.32525802e-01,
          4.36440527e-01, 4.36440527e-01, 2.90302951e-02, 2.97390167e-02,
          4.36440527e-01, 4.36440527e-01, 4.36440527e-01, 1.54752389e-01,
          2.23928481e-01, 3.86549801e-01, 4.28251117e-01, 4.28251117e-01,
          4.28251117e-01, 3.15856665e-01, 2.41071627e-01, 1.70679808e-01,
          2.42791370e-01, 8.94837752e-02, 1.32759258e-01, 1.48441717e-01,
          4.20885473e-01, 4.90708500e-01, 4.90708500e-01, 4.90708500e-01,
          2.11991414e-01, 5.44255264e-02, 2.36287609e-01, 1.34203881e-01,
          4.20241356e-01, 4.20241356e-01, 4.20241356e-01, 4.20241356e-01,
          2.94490516e-01, 1.72301859e-01, 3.14858288e-01, 2.07537264e-01,
          1.45274088e-01, 1.98537946e-01, 6.86792657e-02, 5.25958240e-01,
          5.25958240e-01, 5.25958240e-01, 1.61665961e-01, 1.74369648e-01 ]
      - [ 4.07416642e-01, 4.07416642e-01, 4.07416642e-01, 0., 0., 0.,
          4.07416642e-01, 4.07416642e-01, 4.07416642e-01, 2.91416883e-01,
          0., 0., 0., 0., 0., 6.41772985e-01, 6.41772985e-01,
          2.91416883e-01, 0., 0., 0., 0., 0., 0., 0., 0., 0., 0., 0., 0.,
          0., 0., 0., 0., 0., 0., 3.02431494e-01, 4.46275860e-01,
          4.46275860e-01, 0., 0., 3.53297979e-01, 4.46275860e-01,
          4.26346630e-01, 0., 0., 0., 0., 0., 0., 2.66286641e-01,
          6.79084718e-01, 6.79084718e-01, 0., 0., 0., 0., 0., 0., 0., 0.,
          0., 0., 0., 0., 0., 0., 0., 0., 0., 0., 0., 2.81196266e-01,
          3.90943974e-01, 3.90943974e-01, 0., 0., 3.90943974e-01,
          3.90943974e-01, 3.90943974e-01, 3.90943974e-01, 5.25573909e-01,
          5.25573909e-01, 1.88665360e-01, 0., 0., 1.27660632e-01,
          3.01848292e-01, 1.51865423e-01, 5.25573909e-01, 5.46806276e-01,
          5.46806276e-01, 2.15652347e-01, 0., 1.87788963e-01,
          1.10338494e-01, 6.00253642e-02, 0., 5.46806276e-01,
          4.11861092e-01, 0., 0., 0., 4.11861092e-01, 3.84366959e-01,
          4.11861092e-01, 4.11861092e-01, 4.11861092e-01, 4.12870556e-01,
          2.22854778e-01, 4.35320854e-01, 4.09777194e-01, 4.35320854e-01,
          0., 4.78405580e-02, 1.91849828e-01, 4.35320854e-01,
          5.72731614e-01, 9.45933610e-02, 3.22249718e-02, 0.,
          5.72731614e-01, 0., 3.66999139e-03, 1.47173684e-02,
          5.72731614e-01, 4.69209224e-01, 2.17989892e-01, 1.22413293e-01,
          0., 4.95825022e-01, 4.95825022e-01, 3.36733609e-01,
          5.52047510e-03, 3.27538073e-01, 2.35752076e-01, 0., 0., 0.,
          4.99622196e-01, 4.99622196e-01, 4.99622196e-01, 2.85885602e-01,
          3.29898924e-01 ]
      - [ 3.62895459e-01, 3.62895459e-01, 3.62895459e-01, 3.45771700e-01,
          3.62895459e-01, 3.62895459e-01, 1.10564798e-01, 2.72824317e-01,
          3.62895459e-01, 5.26018143e-01, 2.41706893e-01, 1.37120232e-01,
          1.31317168e-01, 5.26018143e-01, 2.42311373e-01, 7.20194876e-02,
          7.93187842e-02, 5.26018143e-01, 4.10060406e-01, 1.36127889e-01,
          4.10060406e-01, 3.64601135e-01, 4.10060406e-01, 0.,
          6.07549287e-02, 4.10060406e-01, 4.10060406e-01, 3.39903206e-01,
          6.10691495e-02, 2.21560806e-01, 8.76258165e-02, 5.66487722e-02,
          0., 4.90865767e-01, 5.35937726e-01, 5.35937726e-01,
          2.91009814e-01, 2.91826189e-01, 3.43708217e-01, 4.53830928e-01,
          4.53830928e-01, 4.53830928e-01, 1.66828766e-01, 1.83737129e-01,
          1.67343110e-01, 1.46497771e-01, 5.10863245e-01, 2.80556440e-01,
          5.31926863e-02, 5.10863245e-01, 5.10863245e-01, 2.81987697e-01,
          1.69890672e-01, 2.38989685e-02, 4.15473998e-01, 4.35887545e-01,
          4.35887545e-01, 1.97368696e-01, 4.35887545e-01, 4.35887545e-01,
          1.43662393e-01, 4.27260101e-02, 4.02079485e-02, 8.48223642e-02,
          3.10441792e-01, 4.18336004e-01, 4.81327623e-02, 3.61812711e-01,
          4.18336004e-01, 4.18336004e-01, 4.18336004e-01, 2.42912993e-01,
          0., 0., 0., 0., 0., 0., 0., 0., 0., 1.81353316e-01,
          6.24665260e-01, 6.24665260e-01, 2.80896872e-01, 0., 0.,
          3.01682353e-01, 1.02691561e-01, 0., 4.35967356e-01,
          4.35967356e-01, 4.35967356e-01, 8.04202110e-02, 8.70823339e-02,
          4.35967356e-01, 4.35967356e-01, 1.44729540e-01, 1.01538107e-01,
          4.16775614e-01, 4.76967782e-01, 2.24410415e-01, 2.00037006e-02,
          2.44802460e-01, 4.76967782e-01, 4.76967782e-01, 1.67844996e-01,
          1.33769894e-02, 0., 0., 0., 0., 0., 0., 0., 0., 0.,
          5.66527992e-03, 5.46957910e-01, 5.46957910e-01, 5.46957910e-01,
          2.66621858e-01, 0., 1.52695939e-01, 5.11267148e-02, 0.,
          3.76750678e-01, 2.41505608e-01, 3.76750678e-01, 3.76750678e-01,
          3.76750678e-01, 3.76750678e-01, 3.76750678e-01, 6.66856840e-02,
          2.86037683e-01, 3.65141511e-01, 1.93211749e-01, 1.47652393e-02,
          0., 1.85576633e-01, 6.17300928e-01, 6.17300928e-01,
          1.16487011e-01, 1.13273054e-01 ]
      - [ 4.08512264e-01, 4.08512264e-01, 4.08512264e-01, 8.31586942e-02,
          4.08512264e-01, 3.26515019e-01, 2.11987838e-01, 5.51482327e-02,
          4.08512264e-01, 3.88813227e-01, 9.44902971e-02, 2.69397497e-01,
          3.88813227e-01, 3.88813227e-01, 8.69365633e-02, 3.88813227e-01,
          3.88813227e-01, 3.88813227e-01, 3.66320193e-01, 3.88405502e-01,
          4.08858776e-01, 4.08858776e-01, 1.01188775e-02, 0.,
          4.08858776e-01, 4.08858776e-01, 2.05187201e-01, 3.96525562e-01,
          2.29441926e-01, 3.96525562e-01, 3.96525562e-01, 0., 0.,
          3.96525562e-01, 3.96525562e-01, 3.96525562e-01, 2.34054074e-01,
          4.70857471e-01, 4.70857471e-01, 2.56311651e-02, 9.82042551e-02,
          2.08296940e-01, 4.70857471e-01, 4.70857471e-01, 0.,
          8.42621364e-03, 2.94622660e-01, 4.48733091e-01, 4.48733091e-01,
          1.86636254e-01, 4.73140068e-02, 4.48733091e-01, 4.48733091e-01,
          2.57151514e-01, 3.57364267e-02, 4.63296950e-01, 4.63296950e-01,
          2.15187833e-01, 8.87085777e-03, 0., 4.63296950e-01,
          4.63296950e-01, 2.98554331e-01, 6.60599992e-02, 4.88112122e-01,
          4.88112122e-01, 1.35849327e-01, 0., 1.28687933e-01,
          4.88112122e-01, 4.88112122e-01, 5.22646829e-02, 1.78643595e-02,
          4.51325953e-01, 4.51325953e-01, 0., 9.37719569e-02,
          4.51325953e-01, 4.51325953e-01, 4.14245158e-01, 0., 0.,
          3.87282044e-01, 4.44533199e-01, 4.44533199e-01, 0.,
          1.01535700e-01, 4.44533199e-01, 4.44533199e-01, 2.11715907e-01,
          2.60225117e-01, 3.92317265e-01, 3.92317265e-01, 3.92317265e-01,
          0., 6.99043423e-02, 3.92317265e-01, 3.92317265e-01,
          3.92317265e-01, 2.07568869e-01, 4.73840922e-01, 4.73840922e-01,
          0., 0., 4.73840922e-01, 4.73840922e-01, 2.31380820e-01,
          2.33339351e-02, 0., 2.46004686e-01, 4.91132170e-01, 0.,
          4.91132170e-01, 1.12992838e-01, 4.91132170e-01, 4.45170313e-01,
          0., 0., 2.72127122e-01, 6.16947055e-01, 6.16947055e-01,
          9.02294070e-02, 1.53711131e-02, 2.12662280e-01, 3.14212024e-01,
          7.87881687e-02, 3.55876356e-01, 2.05692098e-01, 3.56504083e-01,
          3.74562353e-01, 3.74562353e-01, 3.02862316e-01, 2.17467919e-01,
          3.74562353e-01, 3.74562353e-01, 2.22582683e-01, 3.56205672e-01,
          4.26309444e-02, 6.13530017e-02, 4.87021118e-01, 4.87021118e-01,
          4.87021118e-01, 2.98519522e-01, 1.11561336e-01 ]
